{"learner":{"attributes":{"scikit_learn":"{\"_estimator_type\": \"classifier\"}"},"feature_names":["face_count","aspect_ratio","vol_ratio","dia_ratio","thick_ratio","radial_dist","z_dist_to_stator","touches_top_bearing","touches_bot_bearing","is_wider_than_stator"],"feature_types":["int","float","float","float","float","float","float","int","int","int"],"gradient_booster":{"model":{"cats":{"enc":[],"feature_segments":[],"sorted_idx":[]},"gbtree_model_param":{"num_parallel_tree":"1","num_trees":"1500"},"iteration_indptr":[0,10,20,30,40,50,60,70,80,90,100,110,120,130,140,150,160,170,180,190,200,210,220,230,240,250,260,270,280,290,300,310,320,330,340,350,360,370,380,390,400,410,420,430,440,450,460,470,480,490,500,510,520,530,540,550,560,570,580,590,600,610,620,630,640,650,660,670,680,690,700,710,720,730,740,750,760,770,780,790,800,810,820,830,840,850,860,870,880,890,900,910,920,930,940,950,960,970,980,990,1000,1010,1020,1030,1040,1050,1060,1070,1080,1090,1100,1110,1120,1130,1140,1150,1160,1170,1180,1190,1200,1210,1220,1230,1240,1250,1260,1270,1280,1290,1300,1310,1320,1330,1340,1350,1360,1370,1380,1390,1400,1410,1420,1430,1440,1450,1460,1470,1480,1490,1500],"tree_info":[0,1,2,3,4,5,6,7,8,9,0,1,2,3,4,5,6,7,8,9,0,1,2,3,4,5,6,7,8,9,0,1,2,3,4,5,6,7,8,9,0,1,2,3,4,5,6,7,8,9,0,1,2,3,4,5,6,7,8,9,0,1,2,3,4,5,6,7,8,9,0,1,2,3,4,5,6,7,8,9,0,1,2,3,4,5,6,7,8,9,0,1,2,3,4,5,6,7,8,9,0,1,2,3,4,5,6,7,8,9,0,1,2,3,4,5,6,7,8,9,0,1,2,3,4,5,6,7,8,9,0,1,2,3,4,5,6,7,8,9,0,1,2,3,4,5,6,7,8,9,0,1,2,3,4,5,6,7,8,9,0,1,2,3,4,5,6,7,8,9,0,1,2,3,4,5,6,7,8,9,0,1,2,3,4,5,6,7,8,9,0,1,2,3,4,5,6,7,8,9,0,1,2,3,4,5,6,7,8,9,0,1,2,3,4,5,6,7,8,9,0,1,2,3,4,5,6,7,8,9,0,1,2,3,4,5,6,7,8,9,0,1,2,3,4,5,6,7,8,9,0,1,2,3,4,5,6,7,8,9,0,1,2,3,4,5,6,7,8,9,0,1,2,3,4,5,6,7,8,9,0,1,2,3,4,5,6,7,8,9,0,1,2,3,4,5,6,7,8,9,0,1,2,3,4,5,6,7,8,9,0,1,2,3,4,5,6,7,8,9,0,1,2,3,4,5,6,7,8,9,0,1,2,3,4,5,6,7,8,9,0,1,2,3,4,5,6,7,8,9,0,1,2,3,4,5,6,7,8,9,0,1,2,3,4,5,6,7,8,9,0,1,2,3,4,5,6,7,8,9,0,1,2,3,4,5,6,7,8,9,0,1,2,3,4,5,6,7,8,9,0,1,2,3,4,5,6,7,8,9,0,1,2,3,4,5,6,7,8,9,0,1,2,3,4,5,6,7,8,9,0,1,2,3,4,5,6,7,8,9,0,1,2,3,4,5,6,7,8,9,0,1,2,3,4,5,6,7,8,9,0,1,2,3,4,5,6,7,8,9,0,1,2,3,4,5,6,7,8,9,0,1,2,3,4,5,6,7,8,9,0,1,2,3,4,5,6,7,8,9,0,1,2,3,4,5,6,7,8,9,0,1,2,3,4,5,6,7,8,9,0,1,2,3,4,5,6,7,8,9,0,1,2,3,4,5,6,7,8,9,0,1,2,3,4,5,6,7,8,9,0,1,2,3,4,5,6,7,8,9,0,1,2,3,4,5,6,7,8,9,0,1,2,3,4,5,6,7,8,9,0,1,2,3,4,5,6,7,8,9,0,1,2,3,4,5,6,7,8,9,0,1,2,3,4,5,6,7,8,9,0,1,2,3,4,5,6,7,8,9,0,1,2,3,4,5,6,7,8,9,0,1,2,3,4,5,6,7,8,9,0,1,2,3,4,5,6,7,8,9,0,1,2,3,4,5,6,7,8,9,0,1,2,3,4,5,6,7,8,9,0,1,2,3,4,5,6,7,8,9,0,1,2,3,4,5,6,7,8,9,0,1,2,3,4,5,6,7,8,9,0,1,2,3,4,5,6,7,8,9,0,1,2,3,4,5,6,7,8,9,0,1,2,3,4,5,6,7,8,9,0,1,2,3,4,5,6,7,8,9,0,1,2,3,4,5,6,7,8,9,0,1,2,3,4,5,6,7,8,9,0,1,2,3,4,5,6,7,8,9,0,1,2,3,4,5,6,7,8,9,0,1,2,3,4,5,6,7,8,9,0,1,2,3,4,5,6,7,8,9,0,1,2,3,4,5,6,7,8,9,0,1,2,3,4,5,6,7,8,9,0,1,2,3,4,5,6,7,8,9,0,1,2,3,4,5,6,7,8,9,0,1,2,3,4,5,6,7,8,9,0,1,2,3,4,5,6,7,8,9,0,1,2,3,4,5,6,7,8,9,0,1,2,3,4,5,6,7,8,9,0,1,2,3,4,5,6,7,8,9,0,1,2,3,4,5,6,7,8,9,0,1,2,3,4,5,6,7,8,9,0,1,2,3,4,5,6,7,8,9,0,1,2,3,4,5,6,7,8,9,0,1,2,3,4,5,6,7,8,9,0,1,2,3,4,5,6,7,8,9,0,1,2,3,4,5,6,7,8,9,0,1,2,3,4,5,6,7,8,9,0,1,2,3,4,5,6,7,8,9,0,1,2,3,4,5,6,7,8,9,0,1,2,3,4,5,6,7,8,9,0,1,2,3,4,5,6,7,8,9,0,1,2,3,4,5,6,7,8,9,0,1,2,3,4,5,6,7,8,9,0,1,2,3,4,5,6,7,8,9,0,1,2,3,4,5,6,7,8,9,0,1,2,3,4,5,6,7,8,9,0,1,2,3,4,5,6,7,8,9,0,1,2,3,4,5,6,7,8,9,0,1,2,3,4,5,6,7,8,9,0,1,2,3,4,5,6,7,8,9,0,1,2,3,4,5,6,7,8,9,0,1,2,3,4,5,6,7,8,9,0,1,2,3,4,5,6,7,8,9,0,1,2,3,4,5,6,7,8,9,0,1,2,3,4,5,6,7,8,9,0,1,2,3,4,5,6,7,8,9,0,1,2,3,4,5,6,7,8,9,0,1,2,3,4,5,6,7,8,9,0,1,2,3,4,5,6,7,8,9,0,1,2,3,4,5,6,7,8,9,0,1,2,3,4,5,6,7,8,9,0,1,2,3,4,5,6,7,8,9,0,1,2,3,4,5,6,7,8,9,0,1,2,3,4,5,6,7,8,9,0,1,2,3,4,5,6,7,8,9,0,1,2,3,4,5,6,7,8,9,0,1,2,3,4,5,6,7,8,9,0,1,2,3,4,5,6,7,8,9,0,1,2,3,4,5,6,7,8,9,0,1,2,3,4,5,6,7,8,9,0,1,2,3,4,5,6,7,8,9,0,1,2,3,4,5,6,7,8,9,0,1,2,3,4,5,6,7,8,9,0,1,2,3,4,5,6,7,8,9,0,1,2,3,4,5,6,7,8,9,0,1,2,3,4,5,6,7,8,9,0,1,2,3,4,5,6,7,8,9,0,1,2,3,4,5,6,7,8,9,0,1,2,3,4,5,6,7,8,9,0,1,2,3,4,5,6,7,8,9,0,1,2,3,4,5,6,7,8,9,0,1,2,3,4,5,6,7,8,9,0,1,2,3,4,5,6,7,8,9,0,1,2,3,4,5,6,7,8,9,0,1,2,3,4,5,6,7,8,9,0,1,2,3,4,5,6,7,8,9,0,1,2,3,4,5,6,7,8,9,0,1,2,3,4,5,6,7,8,9,0,1,2,3,4,5,6,7,8,9,0,1,2,3,4,5,6,7,8,9],"trees":[{"base_weights":[2.2602148E-5,-5.3548265E-1,4.9225688E-1,2.5687557E-1,-5.453784E-1,-5.4754164E-2,-3.3303685E-2],"categories":[],"categories_nodes":[],"categories_segments":[],"categories_sizes":[],"default_left":[0,0,0,0,0,0,0],"id":0,"left_children":[1,3,-1,-1,5,-1,-1],"loss_changes":[1.7304513E3,1.9587906E1,0E0,0E0,8.911133E-2,0E0,0E0],"parents":[2147483647,0,0,1,1,4,4],"right_children":[2,4,-1,-1,6,-1,-1],"split_conditions":[5.19518E0,4.7915136E-3,4.9225688E-1,2.5687557E-1,8.164575E1,-5.4754164E-2,-3.3303685E-2],"split_indices":[5,2,0,0,6,0,0],"split_type":[0,0,0,0,0,0,0],"sum_hessian":[6.544563E2,5.9104944E2,6.3406826E1,1.0564715E0,5.89993E2,5.824803E2,7.5126867E0],"tree_param":{"num_deleted":"0","num_feature":"10","num_nodes":"7","size_leaf_vector":"1"}},{"base_weights":[-2.5455756E-6,4.247558E0,-5.5459905E-2,4.924731E-1,-5.019736E-2],"categories":[],"categories_nodes":[],"categories_segments":[],"categories_sizes":[],"default_left":[0,0,0,0,0],"id":1,"left_children":[1,3,-1,-1,-1],"loss_changes":[1.5464645E3,2.4631726E2,0E0,0E0,0E0],"parents":[2147483647,0,0,1,1],"right_children":[2,4,-1,-1,-1],"split_conditions":[3.2023728E-15,1.0999999E0,-5.5459905E-2,4.924731E-1,-5.019736E-2],"split_indices":[5,4,0,0,0],"split_type":[0,0,0,0,0],"sum_hessian":[6.5448267E2,7.481656E1,5.7966614E2,6.544827E1,9.368288E0],"tree_param":{"num_deleted":"0","num_feature":"10","num_nodes":"5","size_leaf_vector":"1"}},{"base_weights":[-2.5455756E-6,-5.5461265E-2,4.8434064E-1],"categories":[],"categories_nodes":[],"categories_segments":[],"categories_sizes":[],"default_left":[0,0,0],"id":2,"left_children":[1,-1,-1],"loss_changes":[1.7634459E3,0E0,0E0],"parents":[2147483647,0,0],"right_children":[2,-1,-1],"split_conditions":[6.8158364E0,-5.5461265E-2,4.8434064E-1],"split_indices":[4,0,0],"split_type":[0,0,0],"sum_hessian":[6.5448267E2,5.880335E2,6.644918E1],"tree_param":{"num_deleted":"0","num_feature":"10","num_nodes":"3","size_leaf_vector":"1"}},{"base_weights":[-2.5215695E-6,-5.544743E-2,1.9944713E0,-5.4582603E-2,3.6443298E0,4.2487326E0,-5.0890196E-2,-5.0187763E-2,4.924731E-1],"categories":[],"categories_nodes":[],"categories_segments":[],"categories_sizes":[],"default_left":[0,0,0,0,0,0,0,0,0],"id":3,"left_children":[1,-1,3,-1,5,7,-1,-1,-1],"loss_changes":[7.2599066E2,0E0,6.0050183E2,0E0,2.1981409E2,2.4588965E2,0E0,0E0,0E0],"parents":[2147483647,0,0,2,2,4,4,5,5],"right_children":[2,-1,4,-1,6,8,-1,-1,-1],"split_conditions":[1.464E3,-5.544743E-2,-3E-1,-5.4582603E-2,1.819E3,7.021497E-1,-5.0890196E-2,-5.0187763E-2,4.924731E-1],"split_indices":[0,0,6,0,0,4,0,0,0],"split_type":[0,0,0,0,0,0,0,0,0],"sum_hessian":[6.5448267E2,5.126781E2,1.4180458E2,5.6098515E1,8.570607E1,7.479802E1,1.0908045E1,9.349752E0,6.544827E1],"tree_param":{"num_deleted":"0","num_feature":"10","num_nodes":"9","size_leaf_vector":"1"}},{"base_weights":[-2.541211E-6,-5.544743E-2,1.9944712E0,4.9124095E-1,4.991984E-2,4.5168757E-1,-5.4837402E-2],"categories":[],"categories_nodes":[],"categories_segments":[],"categories_sizes":[],"default_left":[0,0,0,0,0,0,0],"id":4,"left_children":[1,-1,3,-1,5,-1,-1],"loss_changes":[7.2599066E2,0E0,8.1003955E2,0E0,2.3420343E2,0E0,0E0],"parents":[2147483647,0,0,2,2,4,4],"right_children":[2,-1,4,-1,6,-1,-1],"split_conditions":[1.464E3,-5.544743E-2,-3E-1,4.9124095E-1,7.021497E-1,4.5168757E-1,-5.4837402E-2],"split_indices":[0,0,6,0,4,0,0],"split_type":[0,0,0,0,0,0,0],"sum_hessian":[6.5448267E2,5.126781E2,1.4180458E2,5.6098515E1,8.570607E1,9.349752E0,7.6356316E1],"tree_param":{"num_deleted":"0","num_feature":"10","num_nodes":"7","size_leaf_vector":"1"}},{"base_weights":[-2.5455756E-6,-5.543421E-2,1.2766411E0,4.9125287E-1,-5.513836E-2],"categories":[],"categories_nodes":[],"categories_segments":[],"categories_sizes":[],"default_left":[0,0,0,0,0],"id":5,"left_children":[1,-1,3,-1,-1],"loss_changes":[4.6458893E2,0E0,1.3237222E3,0E0,0E0],"parents":[2147483647,0,0,2,2],"right_children":[2,-1,4,-1,-1],"split_conditions":[1.1113231E0,-5.543421E-2,1.2634437E0,4.9125287E-1,-5.513836E-2],"split_indices":[3,0,3,0,0],"split_type":[0,0,0,0,0],"sum_hessian":[6.5448267E2,4.567292E2,1.977535E2,6.559655E1,1.3215694E2],"tree_param":{"num_deleted":"0","num_feature":"10","num_nodes":"5","size_leaf_vector":"1"}},{"base_weights":[-2.5455756E-6,-5.5460393E-2,4.444585E0,-4.739308E-2,4.8777476E-1],"categories":[],"categories_nodes":[],"categories_segments":[],"categories_sizes":[],"default_left":[0,0,0,0,0],"id":6,"left_children":[1,-1,3,-1,-1],"loss_changes":[1.6182131E3,0E0,1.574751E2,0E0,0E0],"parents":[2147483647,0,0,2,2],"right_children":[2,-1,4,-1,-1],"split_conditions":[1.4075013E0,-5.5460393E-2,1E0,-4.739308E-2,4.8777476E-1],"split_indices":[2,0,7,0,0],"split_type":[0,0,0,0,0],"sum_hessian":[6.5448267E2,5.826536E2,7.1829056E1,5.806194E0,6.6022865E1],"tree_param":{"num_deleted":"0","num_feature":"10","num_nodes":"5","size_leaf_vector":"1"}},{"base_weights":[-2.5455756E-6,-5.545761E-2,3.5171552E0,4.8958388E-1,-5.3202838E-2],"categories":[],"categories_nodes":[],"categories_segments":[],"categories_sizes":[],"default_left":[0,0,0,0,0],"id":7,"left_children":[1,-1,3,-1,-1],"loss_changes":[1.2804844E3,0E0,5.0175977E2,0E0,0E0],"parents":[2147483647,0,0,2,2],"right_children":[2,-1,4,-1,-1],"split_conditions":[1.3155551E0,-5.545761E-2,-7.25E0,4.8958388E-1,-5.3202838E-2],"split_indices":[3,0,6,0,0],"split_type":[0,0,0,0,0],"sum_hessian":[6.5448267E2,5.6606915E2,8.841355E1,6.580044E1,2.261311E1],"tree_param":{"num_deleted":"0","num_feature":"10","num_nodes":"5","size_leaf_vector":"1"}},{"base_weights":[-2.7039357E-6,2.662579E0,-5.5453338E-2,-5.4218084E-2,4.4589415E0,-4.7625247E-2,4.911006E-1],"categories":[],"categories_nodes":[],"categories_segments":[],"categories_sizes":[],"default_left":[0,0,0,0,0,0,0],"id":8,"left_children":[1,3,-1,-1,5,-1,-1],"loss_changes":[9.6928577E2,6.5385425E2,0E0,0E0,1.643573E2,0E0,0E0],"parents":[2147483647,0,0,1,1,4,4],"right_children":[2,4,-1,-1,6,-1,-1],"split_conditions":[9E0,1.1256314E1,-5.5453338E-2,-5.4218084E-2,2.6233548E-1,-4.7625247E-2,4.911006E-1],"split_indices":[0,6,0,0,3,0,0],"split_type":[0,0,0,0,0,0,0],"sum_hessian":[6.544828E2,1.12157326E2,5.4232544E2,4.0536785E1,7.1620544E1,6.00545E0,6.561509E1],"tree_param":{"num_deleted":"0","num_feature":"10","num_nodes":"7","size_leaf_vector":"1"}},{"base_weights":[-2.4735573E-6,4.394545E0,-4.197913E-1,-4.6738785E-2,4.8997504E-1,-5.5459995E-2,3.7156968E0,-4.316762E-2,4.672079E-1],"categories":[],"categories_nodes":[],"categories_segments":[],"categories_sizes":[],"default_left":[0,0,0,0,0,0,0,0,0],"id":9,"left_children":[1,3,5,-1,-1,-1,7,-1,-1],"loss_changes":[1.2110674E3,1.4289307E2,3.3613687E2,0E0,0E0,0E0,7.75672E1,0E0,0E0],"parents":[2147483647,0,0,1,1,2,2,6,6],"right_children":[2,4,6,-1,-1,-1,8,-1,-1],"split_conditions":[3.4946296E-2,8.046801E-2,7.812932E1,-4.6738785E-2,4.8997504E-1,-5.5459995E-2,1.98E2,-4.316762E-2,4.672079E-1],"split_indices":[1,4,6,0,0,0,0,0,0],"split_type":[0,0,0,0,0,0,0,0,0],"sum_hessian":[6.5448267E2,5.6242386E1,5.982403E2,5.3011055E0,5.094128E1,5.8019305E2,1.8047237E1,3.484643E0,1.4562595E1],"tree_param":{"num_deleted":"0","num_feature":"10","num_nodes":"9","size_leaf_vector":"1"}},{"base_weights":[3.450295E-4,-5.3020203E-1,3.0748066E-1,2.184871E-1,-5.406554E-1,-5.4294016E-2,-3.2141108E-2],"categories":[],"categories_nodes":[],"categories_segments":[],"categories_sizes":[],"default_left":[0,0,0,0,0,0,0],"id":10,"left_children":[1,3,-1,-1,5,-1,-1],"loss_changes":[1.0654624E3,1.6991776E1,0E0,0E0,1.03881836E-1,0E0,0E0],"parents":[2147483647,0,0,1,1,4,4],"right_children":[2,4,-1,-1,6,-1,-1],"split_conditions":[5.19518E0,4.7915136E-3,3.0748066E-1,2.184871E-1,8.164575E1,-5.4294016E-2,-3.2141108E-2],"split_indices":[5,2,0,0,6,0,0],"split_type":[0,0,0,0,0,0,0],"sum_hessian":[6.5119904E2,5.560682E2,9.513084E1,1.334924E0,5.547333E2,5.4755084E2,7.1824274E0],"tree_param":{"num_deleted":"0","num_feature":"10","num_nodes":"7","size_leaf_vector":"1"}},{"base_weights":[-1.9509955E-4,2.7747624E0,-5.5040002E-2,3.0706248E-1,-4.9556147E-2],"categories":[],"categories_nodes":[],"categories_segments":[],"categories_sizes":[],"default_left":[0,0,0,0,0],"id":11,"left_children":[1,3,-1,-1,-1],"loss_changes":[9.9800586E2,1.0617297E2,0E0,0E0,0E0],"parents":[2147483647,0,0,1,1],"right_children":[2,4,-1,-1,-1],"split_conditions":[3.2023728E-15,1.0999999E0,-5.5040002E-2,3.0706248E-1,-4.9556147E-2],"split_indices":[5,4,0,0,0],"split_type":[0,0,0,0,0],"sum_hessian":[6.516603E2,1.0715932E2,5.445009E2,9.832503E1,8.8342905E0],"tree_param":{"num_deleted":"0","num_feature":"10","num_nodes":"5","size_leaf_vector":"1"}},{"base_weights":[-2.4936398E-6,-5.5049356E-2,3.047342E0,-3.0412767E-2,3.0914846E-1],"categories":[],"categories_nodes":[],"categories_segments":[],"categories_sizes":[],"default_left":[0,0,0,0,0],"id":12,"left_children":[1,-1,3,-1,-1],"loss_changes":[1.0963203E3,0E0,1.57335205E1,0E0,0E0],"parents":[2147483647,0,0,2,2],"right_children":[2,-1,4,-1,-1],"split_conditions":[6.369749E0,-5.5049356E-2,2.1E1,-3.0412767E-2,3.0914846E-1],"split_indices":[1,0,0,0,0],"split_type":[0,0,0,0,0],"sum_hessian":[6.5153015E2,5.52536E2,9.899414E1,1.2103395E0,9.77838E1],"tree_param":{"num_deleted":"0","num_feature":"10","num_nodes":"5","size_leaf_vector":"1"}},{"base_weights":[-2.769506E-4,-5.502656E-2,1.5500333E0,-5.411719E-2,2.485147E0,2.773835E0,-5.027629E-2,-4.9608644E-2,3.0707943E-1],"categories":[],"categories_nodes":[],"categories_segments":[],"categories_sizes":[],"default_left":[0,0,0,0,0,0,0,0,0],"id":13,"left_children":[1,-1,3,-1,5,7,-1,-1,-1],"loss_changes":[5.574206E2,0E0,3.3611322E2,0E0,1.0358679E2,1.0657837E2,0E0,0E0,0E0],"parents":[2147483647,0,0,2,2,4,4,5,5],"right_children":[2,-1,4,-1,6,8,-1,-1,-1],"split_conditions":[1.464E3,-5.502656E-2,-3E-1,-5.411719E-2,1.819E3,7.021497E-1,-5.027629E-2,-4.9608644E-2,3.0707943E-1],"split_indices":[0,0,6,0,0,4,0,0,0],"split_type":[0,0,0,0,0,0,0,0,0],"sum_hessian":[6.5174805E2,4.815561E2,1.7019196E2,5.271843E1,1.1747353E2,1.0718874E2,1.0284793E1,8.8681345E0,9.832061E1],"tree_param":{"num_deleted":"0","num_feature":"10","num_nodes":"9","size_leaf_vector":"1"}},{"base_weights":[3.7851214E-4,-5.502656E-2,1.5580428E0,3.0691114E-1,4.9786106E-2,2.9925928E-1,-5.4383703E-2],"categories":[],"categories_nodes":[],"categories_segments":[],"categories_sizes":[],"default_left":[0,0,0,0,0,0,0],"id":14,"left_children":[1,-1,3,-1,5,-1,-1],"loss_changes":[5.6021204E2,0E0,3.8862717E2,0E0,1.5254219E2,0E0,0E0],"parents":[2147483647,0,0,2,2,4,4],"right_children":[2,-1,4,-1,6,-1,-1],"split_conditions":[1.464E3,-5.502656E-2,-3E-1,3.0691114E-1,7.021497E-1,2.9925928E-1,-5.4383703E-2],"split_indices":[0,0,6,0,4,0,0],"split_type":[0,0,0,0,0,0,0],"sum_hessian":[6.5114246E2,4.815561E2,1.6958638E2,8.419726E1,8.5389114E1,1.365501E1,7.173411E1],"tree_param":{"num_deleted":"0","num_feature":"10","num_nodes":"7","size_leaf_vector":"1"}},{"base_weights":[-1.776809E-4,-5.501346E-2,1.0576594E0,3.065921E-1,-5.4700132E-2],"categories":[],"categories_nodes":[],"categories_segments":[],"categories_sizes":[],"default_left":[0,0,0,0,0],"id":15,"left_children":[1,-1,3,-1,-1],"loss_changes":[3.8027206E2,0E0,7.2220166E2,0E0,0E0],"parents":[2147483647,0,0,2,2],"right_children":[2,-1,4,-1,-1],"split_conditions":[1.1113231E0,-5.501346E-2,1.2634437E0,3.065921E-1,-5.4700132E-2],"split_indices":[3,0,3,0,0],"split_type":[0,0,0,0,0],"sum_hessian":[6.516524E2,4.2906604E2,2.2258636E2,9.845613E1,1.2413024E2],"tree_param":{"num_deleted":"0","num_feature":"10","num_nodes":"5","size_leaf_vector":"1"}},{"base_weights":[-9.0154776E-5,-5.5040628E-2,2.8662333E0,3.054609E-1,-4.678872E-2],"categories":[],"categories_nodes":[],"categories_segments":[],"categories_sizes":[],"default_left":[0,0,0,0,0],"id":16,"left_children":[1,-1,3,-1,-1],"loss_changes":[1.0309746E3,0E0,6.7548706E1,0E0,0E0],"parents":[2147483647,0,0,2,2],"right_children":[2,-1,4,-1,-1],"split_conditions":[1.4075013E0,-5.5040628E-2,2.8621008E0,3.054609E-1,-4.678872E-2],"split_indices":[2,0,3,0,0],"split_type":[0,0,0,0,0],"sum_hessian":[6.515976E2,5.47323E2,1.04274605E2,9.877757E1,5.497033E0],"tree_param":{"num_deleted":"0","num_feature":"10","num_nodes":"5","size_leaf_vector":"1"}},{"base_weights":[-1.49495E-4,-5.5037793E-2,2.4247758E0,3.0619678E-1,-5.271705E-2],"categories":[],"categories_nodes":[],"categories_segments":[],"categories_sizes":[],"default_left":[0,0,0,0,0],"id":17,"left_children":[1,-1,3,-1,-1],"loss_changes":[8.721227E2,0E0,2.2899213E2,0E0,0E0],"parents":[2147483647,0,0,2,2],"right_children":[2,-1,4,-1,-1],"split_conditions":[1.3155551E0,-5.5037793E-2,1.5123541E0,3.0619678E-1,-5.271705E-2],"split_indices":[3,0,2,0,0],"split_type":[0,0,0,0,0],"sum_hessian":[6.5163605E2,5.317518E2,1.1988426E2,9.857015E1,2.1314114E1],"tree_param":{"num_deleted":"0","num_feature":"10","num_nodes":"5","size_leaf_vector":"1"}},{"base_weights":[-2.1244028E-4,1.9596003E0,-5.503294E-2,-5.373875E-2,2.8699708E0,3.0678627E-1,-4.711836E-2],"categories":[],"categories_nodes":[],"categories_segments":[],"categories_sizes":[],"default_left":[0,0,0,0,0,0,0],"id":18,"left_children":[1,3,-1,-1,5,-1,-1],"loss_changes":[7.047612E2,3.2722937E2,0E0,0E0,7.097058E1,0E0,0E0],"parents":[2147483647,0,0,1,1,4,4],"right_children":[2,4,-1,-1,6,-1,-1],"split_conditions":[9E0,1.1256314E1,-5.503294E-2,-5.373875E-2,1.3861249E-11,3.0678627E-1,-4.711836E-2],"split_indices":[0,6,0,0,5,0,0],"split_type":[0,0,0,0,0,0,0],"sum_hessian":[6.516905E2,1.4227351E2,5.09417E2,3.8121796E1,1.04151726E2,9.840513E1,5.7465982E0],"tree_param":{"num_deleted":"0","num_feature":"10","num_nodes":"7","size_leaf_vector":"1"}},{"base_weights":[3.8165192E-4,2.846077E0,-4.104654E-1,-4.603071E-2,3.066623E-1,-5.5039674E-2,2.5686529E0,-4.2267572E-2,3.0233052E-1],"categories":[],"categories_nodes":[],"categories_segments":[],"categories_sizes":[],"default_left":[0,0,0,0,0,0,0,0,0],"id":19,"left_children":[1,3,5,-1,-1,-1,7,-1,-1],"loss_changes":[7.636245E2,6.149951E1,2.3934225E2,0E0,0E0,0E0,3.6341965E1,0E0,0E0],"parents":[2147483647,0,0,1,1,2,2,6,6],"right_children":[2,4,6,-1,-1,-1,8,-1,-1],"split_conditions":[3.4946296E-2,8.046801E-2,7.812932E1,-4.603071E-2,3.066623E-1,-5.5039674E-2,1.98E2,-4.2267572E-2,3.0233052E-1],"split_indices":[1,4,6,0,0,0,0,0,0],"split_type":[0,0,0,0,0,0,0,0,0],"sum_hessian":[6.511484E2,8.140141E1,5.6974695E2,5.022211E0,7.63792E1,5.449648E2,2.4782146E1,3.278962E0,2.1503185E1],"tree_param":{"num_deleted":"0","num_feature":"10","num_nodes":"9","size_leaf_vector":"1"}},{"base_weights":[6.461192E-4,-5.253634E-1,2.2968106E-1,1.8802483E-1,-5.363543E-1,-5.3876456E-2,-3.107044E-2],"categories":[],"categories_nodes":[],"categories_segments":[],"categories_sizes":[],"default_left":[0,0,0,0,0,0,0],"id":20,"left_children":[1,3,-1,-1,5,-1,-1],"loss_changes":[7.79319E2,1.4888748E1,0E0,0E0,1.17248535E-1,0E0,0E0],"parents":[2147483647,0,0,1,1,4,4],"right_children":[2,4,-1,-1,6,-1,-1],"split_conditions":[5.19518E0,4.7915136E-3,2.2968106E-1,1.8802483E-1,8.164575E1,-5.3876456E-2,-3.107044E-2],"split_indices":[5,2,0,0,6,0,0],"split_type":[0,0,0,0,0,0,0],"sum_hessian":[6.4323706E2,5.239751E2,1.19261955E2,1.6095768E0,5.2236554E2,5.154719E2,6.8936214E0],"tree_param":{"num_deleted":"0","num_feature":"10","num_nodes":"7","size_leaf_vector":"1"}},{"base_weights":[-2.8920305E-4,2.114164E0,-5.4665346E-2,2.2929986E-1,-4.8955306E-2],"categories":[],"categories_nodes":[],"categories_segments":[],"categories_sizes":[],"default_left":[0,0,0,0,0],"id":21,"left_children":[1,3,-1,-1,-1],"loss_changes":[7.461342E2,6.2874268E1,0E0,0E0,0E0],"parents":[2147483647,0,0,1,1],"right_children":[2,4,-1,-1,-1],"split_conditions":[3.2023728E-15,1.0999999E0,-5.4665346E-2,2.2929986E-1,-4.8955306E-2],"split_indices":[5,4,0,0,0],"split_type":[0,0,0,0,0],"sum_hessian":[6.438569E2,1.3161841E2,5.1223846E2,1.2327097E2,8.347439E0],"tree_param":{"num_deleted":"0","num_feature":"10","num_nodes":"5","size_leaf_vector":"1"}},{"base_weights":[-8.7975066E-5,-5.467406E-2,2.2772694E0,-2.9717682E-2,2.3038356E-1],"categories":[],"categories_nodes":[],"categories_segments":[],"categories_sizes":[],"default_left":[0,0,0,0,0],"id":22,"left_children":[1,-1,3,-1,-1],"loss_changes":[8.0397754E2,0E0,9.234497E0,0E0,0E0],"parents":[2147483647,0,0,2,2],"right_children":[2,-1,4,-1,-1],"split_conditions":[6.369749E0,-5.467406E-2,2.1E1,-2.9717682E-2,2.3038356E-1],"split_indices":[1,0,0,0,0],"split_type":[0,0,0,0,0],"sum_hessian":[6.4380475E2,5.1979425E2,1.2401051E2,1.1625789E0,1.2284793E2],"tree_param":{"num_deleted":"0","num_feature":"10","num_nodes":"5","size_leaf_vector":"1"}},{"base_weights":[-4.4589955E-4,-5.465115E-2,1.2907665E0,-5.369559E-2,1.9315219E0,2.1130977E0,-4.970121E-2,-4.9041845E-2,2.2932124E-1],"categories":[],"categories_nodes":[],"categories_segments":[],"categories_sizes":[],"default_left":[0,0,0,0,0,0,0,0,0],"id":23,"left_children":[1,-1,3,-1,5,7,-1,-1,-1],"loss_changes":[4.5550565E2,0E0,2.2590323E2,0E0,6.3837097E1,6.3338257E1,0E0,0E0,0E0],"parents":[2147483647,0,0,2,2,4,4,5,5],"right_children":[2,-1,4,-1,6,8,-1,-1,-1],"split_conditions":[1.464E3,-5.465115E-2,-3E-1,-5.369559E-2,1.819E3,7.021497E-1,-4.970121E-2,-4.9041845E-2,2.2932124E-1],"split_indices":[0,0,6,0,0,4,0,0,0],"split_type":[0,0,0,0,0,0,0,0,0],"sum_hessian":[6.4402747E2,4.5301852E2,1.9100896E2,4.9623222E1,1.4138573E2,1.316709E2,9.714834E0,8.40829E0,1.232626E2],"tree_param":{"num_deleted":"0","num_feature":"10","num_nodes":"9","size_leaf_vector":"1"}},{"base_weights":[5.852318E-4,-5.465115E-2,1.2998915E0,2.2930992E-1,4.8633315E-2,2.2713311E-1,-5.3974908E-2],"categories":[],"categories_nodes":[],"categories_segments":[],"categories_sizes":[],"default_left":[0,0,0,0,0,0,0],"id":24,"left_children":[1,-1,3,-1,5,-1,-1],"loss_changes":[4.58631E2,0E0,2.3746973E2,0E0,1.1319703E2,0E0,0E0],"parents":[2147483647,0,0,2,2,4,4],"right_children":[2,-1,4,-1,6,-1,-1],"split_conditions":[1.464E3,-5.465115E-2,-3E-1,2.2930992E-1,7.021497E-1,2.2713311E-1,-5.3974908E-2],"split_indices":[0,0,6,0,4,0,0],"split_type":[0,0,0,0,0,0,0],"sum_hessian":[6.431909E2,4.5301852E2,1.9017238E2,1.0555424E2,8.461814E1,1.7112597E1,6.750555E1],"tree_param":{"num_deleted":"0","num_feature":"10","num_nodes":"7","size_leaf_vector":"1"}},{"base_weights":[-2.6627193E-4,-5.463714E-2,9.1577166E-1,2.2899489E-1,-5.430903E-2],"categories":[],"categories_nodes":[],"categories_segments":[],"categories_sizes":[],"default_left":[0,0,0,0,0],"id":25,"left_children":[1,-1,3,-1,-1],"loss_changes":[3.230972E2,0E0,4.848444E2,0E0,0E0],"parents":[2147483647,0,0,2,2],"right_children":[2,-1,4,-1,-1],"split_conditions":[1.1113231E0,-5.463714E-2,1.2634437E0,2.2899489E-1,-5.430903E-2],"split_indices":[3,0,3,0,0],"split_type":[0,0,0,0,0],"sum_hessian":[6.438673E2,4.0363803E2,2.4022926E2,1.2341172E2,1.1681754E2],"tree_param":{"num_deleted":"0","num_feature":"10","num_nodes":"5","size_leaf_vector":"1"}},{"base_weights":[-1.4390187E-4,-5.4665722E-2,2.1687844E0,-4.619905E-2,2.2836132E-1],"categories":[],"categories_nodes":[],"categories_segments":[],"categories_sizes":[],"default_left":[0,0,0,0,0],"id":26,"left_children":[1,-1,3,-1,-1],"loss_changes":[7.655684E2,0E0,4.0322388E1,0E0,0E0],"parents":[2147483647,0,0,2,2],"right_children":[2,-1,4,-1,-1],"split_conditions":[1.4075013E0,-5.4665722E-2,1E0,-4.619905E-2,2.2836132E-1],"split_indices":[2,0,7,0,0],"split_type":[0,0,0,0,0],"sum_hessian":[6.438593E2,5.1487274E2,1.2898654E2,5.26813E0,1.2371841E2],"tree_param":{"num_deleted":"0","num_feature":"10","num_nodes":"5","size_leaf_vector":"1"}},{"base_weights":[-2.273166E-4,-5.466282E-2,1.8932124E0,2.2871517E-1,-5.225729E-2],"categories":[],"categories_nodes":[],"categories_segments":[],"categories_sizes":[],"default_left":[0,0,0,0,0],"id":27,"left_children":[1,-1,3,-1,-1],"loss_changes":[6.68211E2,0E0,1.38849E2,0E0,0E0],"parents":[2147483647,0,0,2,2],"right_children":[2,-1,4,-1,-1],"split_conditions":[1.3155551E0,-5.466282E-2,2.3471047E-1,2.2871517E-1,-5.225729E-2],"split_indices":[3,0,1,0,0],"split_type":[0,0,0,0,0],"sum_hessian":[6.438781E2,5.0023398E2,1.4364412E2,1.23550186E2,2.0093935E1],"tree_param":{"num_deleted":"0","num_feature":"10","num_nodes":"5","size_leaf_vector":"1"}},{"base_weights":[-3.386731E-4,1.5825849E0,-5.4657865E-2,-5.3301316E-2,2.1718469E0,2.2909072E-1,-4.6438914E-2],"categories":[],"categories_nodes":[],"categories_segments":[],"categories_sizes":[],"default_left":[0,0,0,0,0,0,0],"id":28,"left_children":[1,3,-1,-1,5,-1,-1],"loss_changes":[5.5852606E2,2.0775098E2,0E0,0E0,4.1808838E1,0E0,0E0],"parents":[2147483647,0,0,1,1,4,4],"right_children":[2,4,-1,-1,6,-1,-1],"split_conditions":[9E0,1.1256314E1,-5.4657865E-2,-5.3301316E-2,1.3861249E-11,2.2909072E-1,-4.6438914E-2],"split_indices":[0,6,0,0,5,0,0],"split_type":[0,0,0,0,0,0,0],"sum_hessian":[6.439513E2,1.647199E2,4.792314E2,3.5905533E1,1.2881436E2,1.2337344E2,5.440921E0],"tree_param":{"num_deleted":"0","num_feature":"10","num_nodes":"7","size_leaf_vector":"1"}},{"base_weights":[5.6981854E-4,2.158924E0,-4.02379E-1,-4.5357656E-2,2.2923139E-1,-5.4664697E-2,1.9952046E0,-4.152612E-2,2.2787154E-1],"categories":[],"categories_nodes":[],"categories_segments":[],"categories_sizes":[],"default_left":[0,0,0,0,0,0,0,0,0],"id":29,"left_children":[1,3,5,-1,-1,-1,7,-1,-1],"loss_changes":[5.6116125E2,3.6413635E1,1.8916147E2,0E0,0E0,0E0,2.2182816E1,0E0,0E0],"parents":[2147483647,0,0,1,1,2,2,6,6],"right_children":[2,4,6,-1,-1,-1,8,-1,-1],"split_conditions":[3.4946296E-2,8.046801E-2,7.812932E1,-4.5357656E-2,2.2923139E-1,-5.4664697E-2,1.98E2,-4.152612E-2,2.2787154E-1],"split_indices":[1,4,6,0,0,0,0,0,0],"split_type":[0,0,0,0,0,0,0,0,0],"sum_hessian":[6.4323193E2,1.0050883E2,5.427231E2,4.7659135E0,9.574292E1,5.1264795E2,3.0075172E1,3.1161695E0,2.6959003E1],"tree_param":{"num_deleted":"0","num_feature":"10","num_nodes":"9","size_leaf_vector":"1"}},{"base_weights":[9.5466425E-4,-5.207227E-1,1.8546347E-1,1.6394743E-1,-5.3225034E-1,-5.3542584E-2,-3.3219736E-2],"categories":[],"categories_nodes":[],"categories_segments":[],"categories_sizes":[],"default_left":[0,0,0,0,0,0,0],"id":30,"left_children":[1,3,-1,-1,5,-1,-1],"loss_changes":[6.124662E2,1.3180634E1,0E0,0E0,1.3493347E-1,0E0,0E0],"parents":[2147483647,0,0,1,1,4,4],"right_children":[2,4,-1,-1,6,-1,-1],"split_conditions":[5.19518E0,4.7915136E-3,1.8546347E-1,1.6394743E-1,2.5561962E0,-5.3542584E-2,-3.3219736E-2],"split_indices":[5,2,0,0,2,0,0],"split_type":[0,0,0,0,0,0,0],"sum_hessian":[6.3135364E2,4.9325656E2,1.3809708E2,1.8686364E0,4.913879E2,4.8205963E2,9.328277E0],"tree_param":{"num_deleted":"0","num_feature":"10","num_nodes":"7","size_leaf_vector":"1"}},{"base_weights":[-3.679556E-4,1.7263889E0,-5.4315705E-2,1.850922E-1,-4.8361126E-2],"categories":[],"categories_nodes":[],"categories_segments":[],"categories_sizes":[],"default_left":[0,0,0,0,0],"id":31,"left_children":[1,3,-1,-1,-1],"loss_changes":[5.942185E2,4.262552E1,0E0,0E0,0E0],"parents":[2147483647,0,0,1,1],"right_children":[2,4,-1,-1,-1],"split_conditions":[3.2023728E-15,1.0999999E0,-5.4315705E-2,1.850922E-1,-4.8361126E-2],"split_indices":[5,4,0,0,0],"split_type":[0,0,0,0,0],"sum_hessian":[6.319916E2,1.5062683E2,4.8136475E2,1.4274564E2,7.8812027E0],"tree_param":{"num_deleted":"0","num_feature":"10","num_nodes":"5","size_leaf_vector":"1"}},{"base_weights":[-1.4567541E-4,-5.432386E-2,1.8390317E0,-2.9033005E-2,1.857633E-1],"categories":[],"categories_nodes":[],"categories_segments":[],"categories_sizes":[],"default_left":[0,0,0,0,0],"id":32,"left_children":[1,-1,3,-1,-1],"loss_changes":[6.33261E2,0E0,6.2640686E0,0E0,0E0],"parents":[2147483647,0,0,2,2],"right_children":[2,-1,4,-1,-1],"split_conditions":[6.369749E0,-5.432386E-2,2.1E1,-2.9033005E-2,1.857633E-1],"split_indices":[1,0,0,0,0],"split_type":[0,0,0,0,0],"sum_hessian":[6.319935E2,4.8846014E2,1.4353336E2,1.1164896E0,1.4241687E2],"tree_param":{"num_deleted":"0","num_feature":"10","num_nodes":"5","size_leaf_vector":"1"}},{"base_weights":[-5.940637E-4,-5.4300766E-2,1.1147231E0,-5.3294595E-2,1.5959709E0,1.7253767E0,-4.913434E-2,-4.8473336E-2,1.8511532E-1],"categories":[],"categories_nodes":[],"categories_segments":[],"categories_sizes":[],"default_left":[0,0,0,0,0,0,0,0,0],"id":33,"left_children":[1,-1,3,-1,5,7,-1,-1,-1],"loss_changes":[3.836924E2,0E0,1.6540506E2,0E0,4.429883E1,4.306549E1,0E0,0E0,0E0],"parents":[2147483647,0,0,2,2,4,4,5,5],"right_children":[2,-1,4,-1,6,8,-1,-1,-1],"split_conditions":[1.464E3,-5.4300766E-2,-3E-1,-5.3294595E-2,1.819E3,7.021497E-1,-4.913434E-2,-4.8473336E-2,1.8511532E-1],"split_indices":[0,0,6,0,0,4,0,0,0],"split_type":[0,0,0,0,0,0,0,0,0],"sum_hessian":[6.322403E2,4.2571497E2,2.0652534E2,4.6661358E1,1.5986398E2,1.5069485E2,9.169129E0,7.960545E0,1.4273431E2],"tree_param":{"num_deleted":"0","num_feature":"10","num_nodes":"9","size_leaf_vector":"1"}},{"base_weights":[7.2684226E-4,-5.4300766E-2,1.1238011E0,1.8514447E-1,4.7360577E-2,1.8447654E-1,-5.358811E-2],"categories":[],"categories_nodes":[],"categories_segments":[],"categories_sizes":[],"default_left":[0,0,0,0,0,0,0],"id":34,"left_children":[1,-1,3,-1,5,-1,-1],"loss_changes":[3.8673154E2,0E0,1.6172913E2,0E0,8.941611E1,0E0,0E0],"parents":[2147483647,0,0,2,2,4,4],"right_children":[2,-1,4,-1,6,-1,-1],"split_conditions":[1.464E3,-5.4300766E-2,-3E-1,1.8514447E-1,7.021497E-1,1.8447654E-1,-5.358811E-2],"split_indices":[0,0,6,0,4,0,0],"split_type":[0,0,0,0,0,0,0],"sum_hessian":[6.313076E2,4.2571497E2,2.0559268E2,1.22241135E2,8.335155E1,1.9890636E1,6.346091E1],"tree_param":{"num_deleted":"0","num_feature":"10","num_nodes":"7","size_leaf_vector":"1"}},{"base_weights":[-3.404843E-4,-5.4285645E-2,8.128006E-1,1.848487E-1,-5.394143E-2],"categories":[],"categories_nodes":[],"categories_segments":[],"categories_sizes":[],"default_left":[0,0,0,0,0],"id":35,"left_children":[1,-1,3,-1,-1],"loss_changes":[2.796982E2,0E0,3.563404E2,0E0,0E0],"parents":[2147483647,0,0,2,2],"right_children":[2,-1,4,-1,-1],"split_conditions":[1.1113231E0,-5.4285645E-2,1.2634437E0,1.848487E-1,-5.394143E-2],"split_indices":[3,0,3,0,0],"split_type":[0,0,0,0,0],"sum_hessian":[6.3203186E2,3.7930048E2,2.527314E2,1.429083E2,1.098231E2],"tree_param":{"num_deleted":"0","num_feature":"10","num_nodes":"5","size_leaf_vector":"1"}},{"base_weights":[-1.8195176E-4,-5.4315843E-2,1.7633057E0,-4.555773E-2,1.8433088E0,-3.2293078E-2,1.8610685E-1],"categories":[],"categories_nodes":[],"categories_segments":[],"categories_sizes":[],"default_left":[0,0,0,0,0,0,0],"id":36,"left_children":[1,-1,3,-1,5,-1,-1],"loss_changes":[6.071683E2,0E0,2.7338867E1,0E0,6.151642E0,0E0,0E0],"parents":[2147483647,0,0,2,2,4,4],"right_children":[2,-1,4,-1,6,-1,-1],"split_conditions":[1.4075013E0,-5.4315843E-2,1E0,-4.555773E-2,7.1E2,-3.2293078E-2,1.8610685E-1],"split_indices":[2,0,7,0,0,0,0],"split_type":[0,0,0,0,0,0,0],"sum_hessian":[6.320966E2,4.8382062E2,1.4827599E2,4.9967546E0,1.4327924E2,1.0253694E0,1.4225386E2],"tree_param":{"num_deleted":"0","num_feature":"10","num_nodes":"7","size_leaf_vector":"1"}},{"base_weights":[-2.9208502E-4,-5.4312814E-2,1.5683397E0,1.8466036E-1,-5.1781714E-2],"categories":[],"categories_nodes":[],"categories_segments":[],"categories_sizes":[],"default_left":[0,0,0,0,0],"id":37,"left_children":[1,-1,3,-1,-1],"loss_changes":[5.399318E2,0E0,9.558807E1,0E0,0E0],"parents":[2147483647,0,0,2,2],"right_children":[2,-1,4,-1,-1],"split_conditions":[1.3155551E0,-5.4312814E-2,-7.25E0,1.8466036E-1,-5.1781714E-2],"split_indices":[3,0,6,0,0],"split_type":[0,0,0,0,0],"sum_hessian":[6.320872E2,4.7006998E2,1.6201726E2,1.4305109E2,1.896617E1],"tree_param":{"num_deleted":"0","num_feature":"10","num_nodes":"5","size_leaf_vector":"1"}},{"base_weights":[-4.484091E-4,1.3392462E0,-5.4307748E-2,-5.288289E-2,1.7662907E0,-4.5868035E-2,1.8495202E-1],"categories":[],"categories_nodes":[],"categories_segments":[],"categories_sizes":[],"default_left":[0,0,0,0,0,0,0],"id":38,"left_children":[1,3,-1,-1,5,-1,-1],"loss_changes":[4.610047E2,1.4677283E2,0E0,0E0,2.8445831E1,0E0,0E0],"parents":[2147483647,0,0,1,1,4,4],"right_children":[2,4,-1,-1,6,-1,-1],"split_conditions":[9E0,1.1256314E1,-5.4307748E-2,-5.288289E-2,2.6233548E-1,-4.5868035E-2,1.8495202E-1],"split_indices":[0,6,0,0,3,0,0],"split_type":[0,0,0,0,0,0,0],"sum_hessian":[6.321561E2,1.8181235E2,4.503438E2,3.3784805E1,1.4802754E2,5.174952E0,1.4285258E2],"tree_param":{"num_deleted":"0","num_feature":"10","num_nodes":"7","size_leaf_vector":"1"}},{"base_weights":[6.919723E-4,1.758112E0,-3.950103E-1,-4.4686098E-2,1.8511704E-1,-5.431481E-2,1.644534E0,-4.079571E-2,1.8453984E-1],"categories":[],"categories_nodes":[],"categories_segments":[],"categories_sizes":[],"default_left":[0,0,0,0,0,0,0,0,0],"id":39,"left_children":[1,3,5,-1,-1,-1,7,-1,-1],"loss_changes":[4.404664E2,2.471228E1,1.5709132E2,0E0,0E0,0E0,1.5287727E1,0E0,0E0],"parents":[2147483647,0,0,1,1,2,2,6,6],"right_children":[2,4,6,-1,-1,-1,8,-1,-1],"split_conditions":[3.4946296E-2,8.046801E-2,7.812932E1,-4.4686098E-2,1.8511704E-1,-5.431481E-2,1.98E2,-4.079571E-2,1.8453984E-1],"split_indices":[1,4,6,0,0,0,0,0,0],"split_type":[0,0,0,0,0,0,0,0,0],"sum_hessian":[6.3138763E2,1.1540409E2,5.159836E2,4.519311E0,1.1088478E2,4.81728E2,3.4255558E1,2.9616396E0,3.1293919E1],"tree_param":{"num_deleted":"0","num_feature":"10","num_nodes":"9","size_leaf_vector":"1"}},{"base_weights":[1.2489035E-3,-5.1620865E-1,1.5669146E-1,1.4456247E-1,-5.282742E-1,-5.3099036E-2,-2.8377006E-2],"categories":[],"categories_nodes":[],"categories_segments":[],"categories_sizes":[],"default_left":[0,0,0,0,0,0,0],"id":40,"left_children":[1,3,-1,-1,5,-1,-1],"loss_changes":[5.007555E2,1.17599945E1,0E0,0E0,1.564331E-1,0E0,0E0],"parents":[2147483647,0,0,1,1,4,4],"right_children":[2,4,-1,-1,6,-1,-1],"split_conditions":[5.19518E0,4.7915136E-3,1.5669146E-1,1.4456247E-1,8.164575E1,-5.3099036E-2,-2.8377006E-2],"split_indices":[5,2,0,0,6,0,0],"split_type":[0,0,0,0,0,0,0],"sum_hessian":[6.1609204E2,4.635557E2,1.5253636E2,2.10725E0,4.6144846E2,4.5521976E2,6.2286963E0],"tree_param":{"num_deleted":"0","num_feature":"10","num_nodes":"7","size_leaf_vector":"1"}},{"base_weights":[-4.327714E-4,1.469473E0,-5.398562E-2,1.563689E-1,-4.7765408E-2],"categories":[],"categories_nodes":[],"categories_segments":[],"categories_sizes":[],"default_left":[0,0,0,0,0],"id":41,"left_children":[1,3,-1,-1,-1],"loss_changes":[4.905053E2,3.1213348E1,0E0,0E0,0E0],"parents":[2147483647,0,0,1,1],"right_children":[2,4,-1,-1,-1],"split_conditions":[3.2023728E-15,1.0999999E0,-5.398562E-2,1.563689E-1,-4.7765408E-2],"split_indices":[5,4,0,0,0],"split_type":[0,0,0,0,0],"sum_hessian":[6.166202E2,1.6507466E2,4.515455E2,1.5764366E2,7.4310007E0],"tree_param":{"num_deleted":"0","num_feature":"10","num_nodes":"5","size_leaf_vector":"1"}},{"base_weights":[-1.9862581E-4,-5.399381E-2,1.5540351E0,-2.8362324E-2,1.5682648E-1],"categories":[],"categories_nodes":[],"categories_segments":[],"categories_sizes":[],"default_left":[0,0,0,0,0],"id":42,"left_children":[1,-1,3,-1,-1],"loss_changes":[5.189943E2,0E0,4.614807E0,0E0,0E0],"parents":[2147483647,0,0,2,2],"right_children":[2,-1,4,-1,-1],"split_conditions":[6.369749E0,-5.399381E-2,2.1E1,-2.8362324E-2,1.5682648E-1],"split_indices":[1,0,0,0,0],"split_type":[0,0,0,0,0],"sum_hessian":[6.1667413E2,4.5820547E2,1.5846863E2,1.0721867E0,1.5739644E2],"tree_param":{"num_deleted":"0","num_feature":"10","num_nodes":"5","size_leaf_vector":"1"}},{"base_weights":[-7.24036E-4,-5.3970087E-2,9.8649555E-1,-5.290795E-2,1.3693413E0,1.4685459E0,-4.8548665E-2,-4.789831E-2,1.5639293E-1],"categories":[],"categories_nodes":[],"categories_segments":[],"categories_sizes":[],"default_left":[0,0,0,0,0,0,0,0,0],"id":43,"left_children":[1,-1,3,-1,5,7,-1,-1,-1],"loss_changes":[3.293324E2,0E0,1.27551636E2,0E0,3.2873505E1,3.1614227E1,0E0,0E0,0E0],"parents":[2147483647,0,0,2,2,4,4,5,5],"right_children":[2,-1,4,-1,6,8,-1,-1,-1],"split_conditions":[1.464E3,-5.3970087E-2,-3E-1,-5.290795E-2,1.819E3,7.021497E-1,-4.8548665E-2,-4.789831E-2,1.5639293E-1],"split_indices":[0,0,6,0,0,4,0,0,0],"split_type":[0,0,0,0,0,0,0,0,0],"sum_hessian":[6.169423E2,3.9936215E2,2.175802E2,4.3801365E1,1.7377882E2,1.6515392E2,8.624917E0,7.52326E0,1.5763065E2],"tree_param":{"num_deleted":"0","num_feature":"10","num_nodes":"9","size_leaf_vector":"1"}},{"base_weights":[8.4612536E-4,-5.3970087E-2,9.952739E-1,1.5643322E-1,4.6264295E-2,1.5622142E-1,-5.32157E-2],"categories":[],"categories_nodes":[],"categories_segments":[],"categories_sizes":[],"default_left":[0,0,0,0,0,0,0],"id":44,"left_children":[1,-1,3,-1,5,-1,-1],"loss_changes":[3.3219006E2,0E0,1.1745499E2,0E0,7.3267876E1,0E0,0E0],"parents":[2147483647,0,0,2,2,4,4],"right_children":[2,-1,4,-1,6,-1,-1],"split_conditions":[1.464E3,-5.3970087E-2,-3E-1,1.5643322E-1,7.021497E-1,1.5622142E-1,-5.32157E-2],"split_indices":[0,0,6,0,4,0,0],"split_type":[0,0,0,0,0,0,0],"sum_hessian":[6.159885E2,3.9936215E2,2.1662637E2,1.3501714E2,8.160923E1,2.2069023E1,5.9540207E1],"tree_param":{"num_deleted":"0","num_feature":"10","num_nodes":"7","size_leaf_vector":"1"}},{"base_weights":[-4.0086446E-4,-5.3953856E-2,7.3415923E-1,1.5615107E-1,-5.3590205E-2],"categories":[],"categories_nodes":[],"categories_segments":[],"categories_sizes":[],"default_left":[0,0,0,0,0],"id":45,"left_children":[1,-1,3,-1,-1],"loss_changes":[2.4502295E2,0E0,2.7602393E2,0E0,0E0],"parents":[2147483647,0,0,2,2],"right_children":[2,-1,4,-1,-1],"split_conditions":[1.1113231E0,-5.3953856E-2,1.2634437E0,1.5615107E-1,-5.3590205E-2],"split_indices":[3,0,3,0,0],"split_type":[0,0,0,0,0],"sum_hessian":[6.166992E2,3.5581256E2,2.608867E2,1.5783762E2,1.03049065E2],"tree_param":{"num_deleted":"0","num_feature":"10","num_nodes":"5","size_leaf_vector":"1"}},{"base_weights":[-2.1084146E-4,-5.398584E-2,1.4966483E0,-4.4898495E-2,1.5572584E0,-3.182591E-2,1.5711904E-1],"categories":[],"categories_nodes":[],"categories_segments":[],"categories_sizes":[],"default_left":[0,0,0,0,0,0,0],"id":46,"left_children":[1,-1,3,-1,5,-1,-1],"loss_changes":[4.9988077E2,0E0,2.0036957E1,0E0,4.6612244E0,0E0,0E0],"parents":[2147483647,0,0,2,2,4,4],"right_children":[2,-1,4,-1,6,-1,-1],"split_conditions":[1.4075013E0,-5.398584E-2,1E0,-4.4898495E-2,7.1E2,-3.182591E-2,1.5711904E-1],"split_indices":[2,0,7,0,0,0,0],"split_type":[0,0,0,0,0,0,0],"sum_hessian":[6.168354E2,4.5385202E2,1.6298337E2,4.730267E0,1.582531E2,1.0058197E0,1.5724728E2],"tree_param":{"num_deleted":"0","num_feature":"10","num_nodes":"7","size_leaf_vector":"1"}},{"base_weights":[-3.43298E-4,-5.3982448E-2,1.3477061E0,1.5601526E-1,-5.1381644E-2],"categories":[],"categories_nodes":[],"categories_segments":[],"categories_sizes":[],"default_left":[0,0,0,0,0],"id":47,"left_children":[1,-1,3,-1,-1],"loss_changes":[4.5002362E2,0E0,7.0746124E1,0E0,0E0],"parents":[2147483647,0,0,2,2],"right_children":[2,-1,4,-1,-1],"split_conditions":[1.3155551E0,-5.3982448E-2,1.5123541E0,1.5601526E-1,-5.1381644E-2],"split_indices":[3,0,2,0,0],"split_type":[0,0,0,0,0],"sum_hessian":[6.168037E2,4.4094128E2,1.7586246E2,1.5799335E2,1.786912E1],"tree_param":{"num_deleted":"0","num_feature":"10","num_nodes":"5","size_leaf_vector":"1"}},{"base_weights":[-5.4347125E-4,1.167889E0,-5.397713E-2,-5.247676E-2,1.4992845E0,1.5623555E-1,-4.5232054E-2],"categories":[],"categories_nodes":[],"categories_segments":[],"categories_sizes":[],"default_left":[0,0,0,0,0,0,0],"id":48,"left_children":[1,3,-1,-1,5,-1,-1],"loss_changes":[3.8991342E2,1.1040405E2,0E0,0E0,2.0854126E1,0E0,0E0],"parents":[2147483647,0,0,1,1,4,4],"right_children":[2,4,-1,-1,6,-1,-1],"split_conditions":[9E0,1.1256314E1,-5.397713E-2,-5.247676E-2,1.3861249E-11,1.5623555E-1,-4.5232054E-2],"split_indices":[0,6,0,0,5,0,0],"split_type":[0,0,0,0,0,0,0],"sum_hessian":[6.1685925E2,1.944175E2,4.2244177E2,3.1736193E1,1.6268129E2,1.5778165E2,4.899646E0],"tree_param":{"num_deleted":"0","num_feature":"10","num_nodes":"7","size_leaf_vector":"1"}},{"base_weights":[7.622732E-4,1.493222E0,-3.8819876E-1,-4.4011675E-2,1.563807E-1,-5.398432E-2,1.4063773E0,-4.0108934E-2,1.5606785E-1],"categories":[],"categories_nodes":[],"categories_segments":[],"categories_sizes":[],"default_left":[0,0,0,0,0,0,0,0,0],"id":49,"left_children":[1,3,5,-1,-1,-1,7,-1,-1],"loss_changes":[3.5882147E2,1.81268E1,1.3419614E2,0E0,0E0,0E0,1.1358536E1,0E0,0E0],"parents":[2147483647,0,0,1,1,2,2,6,6],"right_children":[2,4,6,-1,-1,-1,8,-1,-1],"split_conditions":[3.4946296E-2,8.046801E-2,7.812932E1,-4.4011675E-2,1.563807E-1,-5.398432E-2,1.98E2,-4.0108934E-2,1.5606785E-1],"split_indices":[1,4,6,0,0,0,0,0,0],"split_type":[0,0,0,0,0,0,0,0,0],"sum_hessian":[6.1611707E2,1.2678784E2,4.8932922E2,4.281486E0,1.22506355E2,4.5184668E2,3.748255E1,2.8223598E0,3.466019E1],"tree_param":{"num_deleted":"0","num_feature":"10","num_nodes":"9","size_leaf_vector":"1"}},{"base_weights":[1.5605935E-3,-5.117941E-1,1.3648401E-1,1.2914439E-1,-5.244024E-1,-5.2798804E-2,-3.057023E-2],"categories":[],"categories_nodes":[],"categories_segments":[],"categories_sizes":[],"default_left":[0,0,0,0,0,0,0],"id":50,"left_children":[1,3,-1,-1,5,-1,-1],"loss_changes":[4.1985095E2,1.0585785E1,0E0,0E0,1.7854309E-1,0E0,0E0],"parents":[2147483647,0,0,1,1,4,4],"right_children":[2,4,-1,-1,6,-1,-1],"split_conditions":[5.19518E0,4.7915136E-3,1.3648401E-1,1.2914439E-1,2.5561962E0,-5.2798804E-2,-3.057023E-2],"split_indices":[5,2,0,0,2,0,0],"split_type":[0,0,0,0,0,0,0],"sum_hessian":[5.97921E2,4.34813E2,1.63108E2,2.314857E0,4.3249814E2,4.2413022E2,8.367926E0],"tree_param":{"num_deleted":"0","num_feature":"10","num_nodes":"7","size_leaf_vector":"1"}},{"base_weights":[-4.9606175E-4,1.2866279E0,-5.3673286E-2,1.3619529E-1,-4.7162883E-2],"categories":[],"categories_nodes":[],"categories_segments":[],"categories_sizes":[],"default_left":[0,0,0,0,0],"id":51,"left_children":[1,3,-1,-1,-1],"loss_changes":[4.1430286E2,2.40224E1,0E0,0E0,0E0],"parents":[2147483647,0,0,1,1],"right_children":[2,4,-1,-1,-1],"split_conditions":[3.2023728E-15,1.0999999E0,-5.3673286E-2,1.3619529E-1,-4.7162883E-2],"split_indices":[5,4,0,0,0],"split_type":[0,0,0,0,0],"sum_hessian":[5.982616E2,1.7553271E2,4.2272888E2,1.6853784E2,6.994872E0],"tree_param":{"num_deleted":"0","num_feature":"10","num_nodes":"5","size_leaf_vector":"1"}},{"base_weights":[-2.4767756E-4,-5.368148E-2,1.3537347E0,-2.7682856E-2,1.3652703E-1],"categories":[],"categories_nodes":[],"categories_segments":[],"categories_sizes":[],"default_left":[0,0,0,0,0],"id":52,"left_children":[1,-1,3,-1,-1],"loss_changes":[4.361619E2,0E0,3.5829163E0,0E0,0E0],"parents":[2147483647,0,0,2,2],"right_children":[2,-1,4,-1,-1],"split_conditions":[6.369749E0,-5.368148E-2,2.1E1,-2.7682856E-2,1.3652703E-1],"split_indices":[1,0,0,0,0],"split_type":[0,0,0,0,0],"sum_hessian":[5.983582E2,4.2896716E2,1.6939104E2,1.0283872E0,1.6836266E2],"tree_param":{"num_deleted":"0","num_feature":"10","num_nodes":"5","size_leaf_vector":"1"}},{"base_weights":[-8.4955874E-4,-5.3656913E-2,8.8869876E-1,-5.253288E-2,1.2056543E0,1.2857742E0,-4.7972813E-2,-4.7314234E-2,1.3621981E-1],"categories":[],"categories_nodes":[],"categories_segments":[],"categories_sizes":[],"default_left":[0,0,0,0,0,0,0,0,0],"id":53,"left_children":[1,-1,3,-1,5,7,-1,-1,-1],"loss_changes":[2.8624072E2,0E0,1.0181978E2,0E0,2.556189E1,2.4386566E1,0E0,0E0,0E0],"parents":[2147483647,0,0,2,2,4,4,5,5],"right_children":[2,-1,4,-1,6,8,-1,-1,-1],"split_conditions":[1.464E3,-5.3656913E-2,-3E-1,-5.253288E-2,1.819E3,7.021497E-1,-4.7972813E-2,-4.7314234E-2,1.3621981E-1],"split_indices":[0,0,6,0,0,4,0,0,0],"split_type":[0,0,0,0,0,0,0,0,0],"sum_hessian":[5.986534E2,3.7388348E2,2.2476991E2,4.1036613E1,1.837333E2,1.7562167E2,8.111637E0,7.096754E0,1.6852492E2],"tree_param":{"num_deleted":"0","num_feature":"10","num_nodes":"9","size_leaf_vector":"1"}},{"base_weights":[9.484467E-4,-5.3656913E-2,8.971565E-1,1.3626161E-1,4.5168817E-2,1.3615035E-1,-5.2857917E-2],"categories":[],"categories_nodes":[],"categories_segments":[],"categories_sizes":[],"default_left":[0,0,0,0,0,0,0],"id":54,"left_children":[1,-1,3,-1,5,-1,-1],"loss_changes":[2.8890408E2,0E0,8.9103226E1,0E0,6.1495693E1,0E0,0E0],"parents":[2147483647,0,0,2,2,4,4],"right_children":[2,-1,4,-1,6,-1,-1],"split_conditions":[1.464E3,-5.3656913E-2,-3E-1,1.3626161E-1,7.021497E-1,1.3615035E-1,-5.2857917E-2],"split_indices":[0,0,6,0,4,0,0],"split_type":[0,0,0,0,0,0,0],"sum_hessian":[5.9772577E2,3.7388348E2,2.2384232E2,1.4437032E2,7.9472015E1,2.370751E1,5.5764503E1],"tree_param":{"num_deleted":"0","num_feature":"10","num_nodes":"7","size_leaf_vector":"1"}},{"base_weights":[-4.5952253E-4,-5.36394E-2,6.719561E-1,1.3598685E-1,-5.3255178E-2],"categories":[],"categories_nodes":[],"categories_segments":[],"categories_sizes":[],"default_left":[0,0,0,0,0],"id":55,"left_children":[1,-1,3,-1,-1],"loss_changes":[2.1636188E2,0E0,2.2136879E2,0E0,0E0],"parents":[2147483647,0,0,2,2],"right_children":[2,-1,4,-1,-1],"split_conditions":[1.1113231E0,-5.36394E-2,1.2634437E0,1.3598685E-1,-5.3255178E-2],"split_indices":[3,0,3,0,0],"split_type":[0,0,0,0,0],"sum_hessian":[5.983867E2,3.3309933E2,2.6528738E2,1.6877087E2,9.6516525E1],"tree_param":{"num_deleted":"0","num_feature":"10","num_nodes":"5","size_leaf_vector":"1"}},{"base_weights":[-2.710259E-4,-5.3673353E-2,1.3073161E0,-4.42522E-2,1.3559435E-1],"categories":[],"categories_nodes":[],"categories_segments":[],"categories_sizes":[],"default_left":[0,0,0,0,0],"id":56,"left_children":[1,-1,3,-1,-1],"loss_changes":[4.212999E2,0E0,1.5467163E1,0E0,0E0],"parents":[2147483647,0,0,2,2],"right_children":[2,-1,4,-1,-1],"split_conditions":[1.4075013E0,-5.3673353E-2,1E0,-4.42522E-2,1.3559435E-1],"split_indices":[2,0,7,0,0],"split_type":[0,0,0,0,0],"sum_hessian":[5.9859424E2,4.2487195E2,1.7372227E2,4.4781246E0,1.6924414E2],"tree_param":{"num_deleted":"0","num_feature":"10","num_nodes":"5","size_leaf_vector":"1"}},{"base_weights":[-3.9336237E-4,-5.366963E-2,1.1877373E0,1.3583376E-1,-5.0968375E-2],"categories":[],"categories_nodes":[],"categories_segments":[],"categories_sizes":[],"default_left":[0,0,0,0,0],"id":57,"left_children":[1,-1,3,-1,-1],"loss_changes":[3.826695E2,0E0,5.4777985E1,0E0,0E0],"parents":[2147483647,0,0,2,2],"right_children":[2,-1,4,-1,-1],"split_conditions":[1.3155551E0,-5.366963E-2,2.3471047E-1,1.3583376E-1,-5.0968375E-2],"split_indices":[3,0,1,0,0],"split_type":[0,0,0,0,0],"sum_hessian":[5.9855E2,4.127773E2,1.8577269E2,1.6898822E2,1.6784472E1],"tree_param":{"num_deleted":"0","num_feature":"10","num_nodes":"5","size_leaf_vector":"1"}},{"base_weights":[-6.3616585E-4,1.0406045E0,-5.3664234E-2,-5.2079856E-2,1.3100696E0,-4.4670716E-2,1.3608526E-1],"categories":[],"categories_nodes":[],"categories_segments":[],"categories_sizes":[],"default_left":[0,0,0,0,0,0,0],"id":58,"left_children":[1,3,-1,-1,5,-1,-1],"loss_changes":[3.3518942E2,8.655545E1,0E0,0E0,1.6161865E1,0E0,0E0],"parents":[2147483647,0,0,1,1,4,4],"right_children":[2,4,-1,-1,6,-1,-1],"split_conditions":[9E0,1.1256314E1,-5.3664234E-2,-5.2079856E-2,2.6233548E-1,-4.4670716E-2,1.3608526E-1],"split_indices":[0,6,0,0,3,0,0],"split_type":[0,0,0,0,0,0,0],"sum_hessian":[5.985774E2,2.0309857E2,3.9547882E2,2.9754545E1,1.7334404E2,4.6510124E0,1.6869302E2],"tree_param":{"num_deleted":"0","num_feature":"10","num_nodes":"7","size_leaf_vector":"1"}},{"base_weights":[8.480278E-4,1.3056403E0,-3.8188657E-1,-4.33221E-2,1.3622579E-1,-5.3671744E-2,1.2345036E0,-3.9405826E-2,1.3594179E-1],"categories":[],"categories_nodes":[],"categories_segments":[],"categories_sizes":[],"default_left":[0,0,0,0,0,0,0,0,0],"id":59,"left_children":[1,3,5,-1,-1,-1,7,-1,-1],"loss_changes":[2.9957782E2,1.3984848E1,1.1674501E2,0E0,0E0,0E0,8.845623E0,0E0,0E0],"parents":[2147483647,0,0,1,1,2,2,6,6],"right_children":[2,4,6,-1,-1,-1,8,-1,-1],"split_conditions":[3.4946296E-2,8.046801E-2,7.812932E1,-4.33221E-2,1.3622579E-1,-5.3671744E-2,1.98E2,-3.9405826E-2,1.3594179E-1],"split_indices":[1,4,6,0,0,0,0,0,0],"split_type":[0,0,0,0,0,0,0,0,0],"sum_hessian":[5.978901E2,1.350558E2,4.6283426E2,4.0490117E0,1.3100679E2,4.229853E2,3.9848976E1,2.6852705E0,3.7163704E1],"tree_param":{"num_deleted":"0","num_feature":"10","num_nodes":"9","size_leaf_vector":"1"}},{"base_weights":[1.9197576E-3,-5.074672E-1,1.2157222E-1,1.16442576E-1,-5.2061695E-1,-5.237046E-2,-2.5466353E-2],"categories":[],"categories_nodes":[],"categories_segments":[],"categories_sizes":[],"default_left":[0,0,0,0,0,0,0],"id":60,"left_children":[1,3,-1,-1,5,-1,-1],"loss_changes":[3.5819266E2,9.577713E0,0E0,0E0,1.9966888E-1,0E0,0E0],"parents":[2147483647,0,0,1,1,4,4],"right_children":[2,4,-1,-1,6,-1,-1],"split_conditions":[5.19518E0,4.7915136E-3,1.2157222E-1,1.16442576E-1,8.164575E1,-5.237046E-2,-2.5466353E-2],"split_indices":[5,2,0,0,6,0,0],"split_type":[0,0,0,0,0,0,0],"sum_hessian":[5.773253E2,4.0707376E2,1.7025154E2,2.4934886E0,4.0458026E2,3.9897913E2,5.601136E0],"tree_param":{"num_deleted":"0","num_feature":"10","num_nodes":"7","size_leaf_vector":"1"}},{"base_weights":[-5.697005E-4,1.1501029E0,-5.3377837E-2,1.2127584E-1,-4.6549942E-2],"categories":[],"categories_nodes":[],"categories_segments":[],"categories_sizes":[],"default_left":[0,0,0,0,0],"id":61,"left_children":[1,3,-1,-1,-1],"loss_changes":[3.5550195E2,1.9137161E1,0E0,0E0,0E0],"parents":[2147483647,0,0,1,1],"right_children":[2,4,-1,-1,-1],"split_conditions":[3.2023728E-15,1.0999999E0,-5.3377837E-2,1.2127584E-1,-4.6549942E-2],"split_indices":[5,4,0,0,0],"split_type":[0,0,0,0,0],"sum_hessian":[5.774188E2,1.8247595E2,3.9494287E2,1.7590349E2,6.572467E0],"tree_param":{"num_deleted":"0","num_feature":"10","num_nodes":"5","size_leaf_vector":"1"}},{"base_weights":[-3.0031786E-4,-5.3385813E-2,1.20552436E-1],"categories":[],"categories_nodes":[],"categories_segments":[],"categories_sizes":[],"default_left":[0,0,0],"id":62,"left_children":[1,-1,-1],"loss_changes":[3.7286667E2,0E0,0E0],"parents":[2147483647,0,0],"right_children":[2,-1,-1],"split_conditions":[6.369749E0,-5.3385813E-2,1.20552436E-1],"split_indices":[1,0,0],"split_type":[0,0,0],"sum_hessian":[5.775457E2,4.0076917E2,1.7677655E2],"tree_param":{"num_deleted":"0","num_feature":"10","num_nodes":"3","size_leaf_vector":"1"}},{"base_weights":[-9.832283E-4,-5.3360622E-2,8.1186676E-1,-5.216782E-2,1.0822301E0,1.1493019E0,-4.738065E-2,-4.6719547E-2,1.2130064E-1],"categories":[],"categories_nodes":[],"categories_segments":[],"categories_sizes":[],"default_left":[0,0,0,0,0,0,0,0,0],"id":63,"left_children":[1,-1,3,-1,5,7,-1,-1,-1],"loss_changes":[2.5105339E2,0E0,8.332773E1,0E0,2.0497574E1,1.9470917E1,0E0,0E0,0E0],"parents":[2147483647,0,0,2,2,4,4,5,5],"right_children":[2,-1,4,-1,6,8,-1,-1,-1],"split_conditions":[1.464E3,-5.3360622E-2,-3E-1,-5.216782E-2,1.819E3,7.021497E-1,-4.738065E-2,-4.6719547E-2,1.2130064E-1],"split_indices":[0,0,6,0,0,4,0,0,0],"split_type":[0,0,0,0,0,0,0,0,0],"sum_hessian":[5.778762E2,3.493239E2,2.2855228E2,3.8369305E1,1.9018298E2,1.8257463E2,7.608348E0,6.6821423E0,1.7589249E2],"tree_param":{"num_deleted":"0","num_feature":"10","num_nodes":"9","size_leaf_vector":"1"}},{"base_weights":[1.0309294E-3,-5.3360622E-2,8.20048E-1,1.2134037E-1,4.4244207E-2,1.2119347E-1,-5.251136E-2],"categories":[],"categories_nodes":[],"categories_segments":[],"categories_sizes":[],"default_left":[0,0,0,0,0,0,0],"id":64,"left_children":[1,-1,3,-1,5,-1,-1],"loss_changes":[2.5353345E2,0E0,6.973273E1,0E0,5.247789E1,0E0,0E0],"parents":[2147483647,0,0,2,2,4,4],"right_children":[2,-1,4,-1,6,-1,-1],"split_conditions":[1.464E3,-5.3360622E-2,-3E-1,1.2134037E-1,7.021497E-1,1.2119347E-1,-5.251136E-2],"split_indices":[0,0,6,0,4,0,0],"split_type":[0,0,0,0,0,0,0],"sum_hessian":[5.770068E2,3.493239E2,2.2768286E2,1.5070624E2,7.697663E1,2.4860949E1,5.211568E1],"tree_param":{"num_deleted":"0","num_feature":"10","num_nodes":"7","size_leaf_vector":"1"}},{"base_weights":[-5.2884076E-4,-5.3341616E-2,6.2164396E-1,1.2106778E-1,-5.2934416E-2],"categories":[],"categories_nodes":[],"categories_segments":[],"categories_sizes":[],"default_left":[0,0,0,0,0],"id":65,"left_children":[1,-1,3,-1,-1],"loss_changes":[1.921639E2,0E0,1.8192839E2,0E0,0E0],"parents":[2147483647,0,0,2,2],"right_children":[2,-1,4,-1,-1],"split_conditions":[1.1113231E0,-5.3341616E-2,1.2634437E0,1.2106778E-1,-5.2934416E-2],"split_indices":[3,0,3,0,0],"split_type":[0,0,0,0,0],"sum_hessian":[5.775959E2,3.111987E2,2.663972E2,1.7618187E2,9.021533E1],"tree_param":{"num_deleted":"0","num_feature":"10","num_nodes":"5","size_leaf_vector":"1"}},{"base_weights":[-2.4447893E-4,-5.3377766E-2,1.1664599E0,1.2072197E0,-4.3877274E-2,-3.3656906E-2,1.2187176E-1],"categories":[],"categories_nodes":[],"categories_segments":[],"categories_sizes":[],"default_left":[0,0,0,0,0,0,0],"id":66,"left_children":[1,-1,3,5,-1,-1,-1],"loss_changes":[3.609778E2,0E0,1.2436081E1,3.565033E0,0E0,0E0,0E0],"parents":[2147483647,0,0,2,2,3,3],"right_children":[2,-1,4,6,-1,-1,-1],"split_conditions":[1.4075013E0,-5.3377766E-2,2.8621008E0,7.1E2,-4.3877274E-2,-3.3656906E-2,1.2187176E-1],"split_indices":[2,0,3,0,0,0,0],"split_type":[0,0,0,0,0,0,0],"sum_hessian":[5.7790656E2,3.9693222E2,1.8097437E2,1.767347E2,4.239663E0,1.0975536E0,1.7563715E2],"tree_param":{"num_deleted":"0","num_feature":"10","num_nodes":"7","size_leaf_vector":"1"}},{"base_weights":[-4.5300575E-4,-5.3373814E-2,1.0668056E0,1.20927624E-1,-5.050704E-2],"categories":[],"categories_nodes":[],"categories_segments":[],"categories_sizes":[],"default_left":[0,0,0,0,0],"id":67,"left_children":[1,-1,3,-1,-1],"loss_changes":[3.3000986E2,0E0,4.3875458E1,0E0,0E0],"parents":[2147483647,0,0,2,2],"right_children":[2,-1,4,-1,-1],"split_conditions":[1.3155551E0,-5.3373814E-2,-7.25E0,1.20927624E-1,-5.050704E-2],"split_indices":[3,0,6,0,0],"split_type":[0,0,0,0,0],"sum_hessian":[5.7782574E2,3.8563333E2,1.921924E2,1.7643178E2,1.5760622E1],"tree_param":{"num_deleted":"0","num_feature":"10","num_nodes":"5","size_leaf_vector":"1"}},{"base_weights":[-7.383146E-4,9.424863E-1,-5.336817E-2,-5.1690508E-2,1.1692169E0,-4.397516E-2,1.2115387E-1],"categories":[],"categories_nodes":[],"categories_segments":[],"categories_sizes":[],"default_left":[0,0,0,0,0,0,0],"id":68,"left_children":[1,3,-1,-1,5,-1,-1],"loss_changes":[2.9146265E2,6.9869446E1,0E0,0E0,1.2891144E1,0E0,0E0],"parents":[2147483647,0,0,1,1,4,4],"right_children":[2,4,-1,-1,6,-1,-1],"split_conditions":[9E0,1.1256314E1,-5.336817E-2,-5.1690508E-2,2.6233548E-1,-4.397516E-2,1.2115387E-1],"split_indices":[0,6,0,0,3,0,0],"split_type":[0,0,0,0,0,0,0],"sum_hessian":[5.778107E2,2.0833054E2,3.6948022E2,2.7841835E1,1.8048871E2,4.385168E0,1.7610353E2],"tree_param":{"num_deleted":"0","num_feature":"10","num_nodes":"7","size_leaf_vector":"1"}},{"base_weights":[8.7066274E-4,1.165527E0,-3.760282E-1,-4.2623207E-2,1.2128037E-1,-5.3375997E-2,1.1049726E0,-3.8664192E-2,1.2098618E-1],"categories":[],"categories_nodes":[],"categories_segments":[],"categories_sizes":[],"default_left":[0,0,0,0,0,0,0,0,0],"id":69,"left_children":[1,3,5,-1,-1,-1,7,-1,-1],"loss_changes":[2.5424782E2,1.1173676E1,1.0281298E2,0E0,0E0,0E0,7.1085625E0,0E0,0E0],"parents":[2147483647,0,0,1,1,2,2,6,6],"right_children":[2,4,6,-1,-1,-1,8,-1,-1],"split_conditions":[3.4946296E-2,8.046801E-2,7.812932E1,-4.2623207E-2,1.2128037E-1,-5.3375997E-2,1.98E2,-3.8664192E-2,1.2098618E-1],"split_indices":[1,4,6,0,0,0,0,0,0],"split_type":[0,0,0,0,0,0,0,0,0],"sum_hessian":[5.772096E2,1.4061191E2,4.365977E2,3.8246336E0,1.3678728E2,3.951522E2,4.144549E1,2.5464582E0,3.8899033E1],"tree_param":{"num_deleted":"0","num_feature":"10","num_nodes":"9","size_leaf_vector":"1"}},{"base_weights":[2.3224466E-3,-5.0321174E-1,1.101326E-1,1.1725062E-1,-5.15922E-1,-5.1944E-1,-2.3045057E-2,-5.222341E-2,-3.3535637E-2],"categories":[],"categories_nodes":[],"categories_segments":[],"categories_sizes":[],"default_left":[0,0,0,0,0,0,0,0,0],"id":70,"left_children":[1,3,-1,-1,5,7,-1,-1,-1],"loss_changes":[3.093351E2,8.727394E0,0E0,0E0,2.611084E-1,1.7097473E-2,0E0,0E0,0E0],"parents":[2147483647,0,0,1,1,4,4,5,5],"right_children":[2,4,-1,-1,6,8,-1,-1,-1],"split_conditions":[5.19518E0,8.046801E-2,1.101326E-1,1.1725062E-1,8.164575E1,2.5561962E0,-2.3045057E-2,-5.222341E-2,-3.3535637E-2],"split_indices":[5,4,0,0,6,2,0,0,0],"split_type":[0,0,0,0,0,0,0,0,0],"sum_hessian":[5.547773E2,3.8035754E2,1.7441977E2,2.1763756E0,3.7818115E2,3.7276782E2,5.4133186E0,3.653849E2,7.382957E0],"tree_param":{"num_deleted":"0","num_feature":"10","num_nodes":"9","size_leaf_vector":"1"}},{"base_weights":[-6.4456294E-4,1.0445905E0,-5.3098537E-2,1.0983044E-1,-4.5926567E-2],"categories":[],"categories_nodes":[],"categories_segments":[],"categories_sizes":[],"default_left":[0,0,0,0,0],"id":71,"left_children":[1,3,-1,-1,-1],"loss_changes":[3.0852185E2,1.5637482E1,0E0,0E0,0E0],"parents":[2147483647,0,0,1,1],"right_children":[2,4,-1,-1,-1],"split_conditions":[3.2023728E-15,1.0999999E0,-5.3098537E-2,1.0983044E-1,-4.5926567E-2],"split_indices":[5,4,0,0,0],"split_type":[0,0,0,0,0],"sum_hessian":[5.545658E2,1.8634114E2,3.6822464E2,1.801754E2,6.165738E0],"tree_param":{"num_deleted":"0","num_feature":"10","num_nodes":"5","size_leaf_vector":"1"}},{"base_weights":[-3.3000283E-4,-5.3106625E-2,1.0912007E0,-2.8301705E-2,1.1008507E-1],"categories":[],"categories_nodes":[],"categories_segments":[],"categories_sizes":[],"default_left":[0,0,0,0,0],"id":72,"left_children":[1,-1,3,-1,-1],"loss_changes":[3.2257513E2,0E0,2.7273102E0,0E0,0E0],"parents":[2147483647,0,0,2,2],"right_children":[2,-1,4,-1,-1],"split_conditions":[6.369749E0,-5.3106625E-2,2.1E1,-2.8301705E-2,1.1008507E-1],"split_indices":[1,0,0,0,0],"split_type":[0,0,0,0,0],"sum_hessian":[5.548215E2,3.7365314E2,1.8116833E2,1.0657812E0,1.8010255E2],"tree_param":{"num_deleted":"0","num_feature":"10","num_nodes":"5","size_leaf_vector":"1"}},{"base_weights":[-1.1170899E-3,-5.308028E-2,7.500213E-1,-5.1811486E-2,9.860262E-1,1.0438356E0,-4.6788447E-2,-4.6112873E-2,1.09855354E-1],"categories":[],"categories_nodes":[],"categories_segments":[],"categories_sizes":[],"default_left":[0,0,0,0,0,0,0,0,0],"id":73,"left_children":[1,-1,3,-1,5,7,-1,-1,-1],"loss_changes":[2.2164622E2,0E0,6.9461655E1,0E0,1.6842804E1,1.5942749E1,0E0,0E0,0E0],"parents":[2147483647,0,0,2,2,4,4,5,5],"right_children":[2,-1,4,-1,6,8,-1,-1,-1],"split_conditions":[1.464E3,-5.308028E-2,-3E-1,-5.1811486E-2,1.819E3,7.021497E-1,-4.6788447E-2,-4.6112873E-2,1.09855354E-1],"split_indices":[0,0,6,0,0,4,0,0,0],"split_type":[0,0,0,0,0,0,0,0,0],"sum_hessian":[5.5508527E2,3.2570142E2,2.293839E2,3.5803577E1,1.9358032E2,1.8644891E2,7.131399E0,6.280573E0,1.8016833E2],"tree_param":{"num_deleted":"0","num_feature":"10","num_nodes":"9","size_leaf_vector":"1"}},{"base_weights":[1.1081045E-3,-5.308028E-2,7.5798905E-1,1.09891616E-1,4.3377228E-2,1.09653555E-1,-5.2176323E-2],"categories":[],"categories_nodes":[],"categories_segments":[],"categories_sizes":[],"default_left":[0,0,0,0,0,0,0],"id":74,"left_children":[1,-1,3,-1,5,-1,-1],"loss_changes":[2.2396028E2,0E0,5.588832E1,0E0,4.532817E1,0E0,0E0],"parents":[2147483647,0,0,2,2,4,4],"right_children":[2,-1,4,-1,6,-1,-1],"split_conditions":[1.464E3,-5.308028E-2,-3E-1,1.09891616E-1,7.021497E-1,1.09653555E-1,-5.2176323E-2],"split_indices":[0,0,6,0,4,0,0],"split_type":[0,0,0,0,0,0,0],"sum_hessian":[5.5429486E2,3.2570142E2,2.2859348E2,1.5439629E2,7.419719E1,2.558269E1,4.8614494E1],"tree_param":{"num_deleted":"0","num_feature":"10","num_nodes":"7","size_leaf_vector":"1"}},{"base_weights":[-5.9985474E-4,-5.3059738E-2,5.802267E-1,1.0961715E-1,-5.2626975E-2],"categories":[],"categories_nodes":[],"categories_segments":[],"categories_sizes":[],"default_left":[0,0,0,0,0],"id":75,"left_children":[1,-1,3,-1,-1],"loss_changes":[1.7140326E2,0E0,1.5224048E2,0E0,0E0],"parents":[2147483647,0,0,2,2],"right_children":[2,-1,4,-1,-1],"split_conditions":[1.1113231E0,-5.3059738E-2,1.2634437E0,1.0961715E-1,-5.2626975E-2],"split_indices":[3,0,3,0,0],"split_type":[0,0,0,0,0],"sum_hessian":[5.547993E2,2.901381E2,2.646612E2,1.8050392E2,8.415728E1],"tree_param":{"num_deleted":"0","num_feature":"10","num_nodes":"5","size_leaf_vector":"1"}},{"base_weights":[-3.088682E-4,-5.3098347E-2,1.0577583E0,1.0928073E0,-4.3180734E-2,-3.32293E-2,1.103125E-1],"categories":[],"categories_nodes":[],"categories_segments":[],"categories_sizes":[],"default_left":[0,0,0,0,0,0,0],"id":76,"left_children":[1,-1,3,5,-1,-1,-1],"loss_changes":[3.1284735E2,0E0,1.0188187E1,3.0442657E0,0E0,0E0,0E0],"parents":[2147483647,0,0,2,2,3,3],"right_children":[2,-1,4,6,-1,-1,-1],"split_conditions":[1.4075013E0,-5.3098347E-2,2.8621008E0,7.1E2,-4.3180734E-2,-3.32293E-2,1.103125E-1],"split_indices":[2,0,3,0,0,0,0],"split_type":[0,0,0,0,0,0,0],"sum_hessian":[5.551738E2,3.7006537E2,1.8510846E2,1.8111328E2,3.9951766E0,1.0775118E0,1.8003578E2],"tree_param":{"num_deleted":"0","num_feature":"10","num_nodes":"7","size_leaf_vector":"1"}},{"base_weights":[-5.1643024E-4,-5.3093966E-2,9.722677E-1,1.0947694E-1,-5.0121773E-2],"categories":[],"categories_nodes":[],"categories_segments":[],"categories_sizes":[],"default_left":[0,0,0,0,0],"id":77,"left_children":[1,-1,3,-1,-1],"loss_changes":[2.8745425E2,0E0,3.6031815E1,0E0,0E0],"parents":[2147483647,0,0,2,2],"right_children":[2,-1,4,-1,-1],"split_conditions":[1.3155551E0,-5.3093966E-2,1.5123541E0,1.0947694E-1,-5.0121773E-2],"split_indices":[3,0,2,0,0],"split_type":[0,0,0,0,0],"sum_hessian":[5.5509515E2,3.5951767E2,1.9557748E2,1.8080302E2,1.4774461E1],"tree_param":{"num_deleted":"0","num_feature":"10","num_nodes":"5","size_leaf_vector":"1"}},{"base_weights":[-8.426458E-4,8.648001E-1,-5.308826E-2,-5.1305868E-2,1.0605928E0,1.0971832E-1,-4.342098E-2],"categories":[],"categories_nodes":[],"categories_segments":[],"categories_sizes":[],"default_left":[0,0,0,0,0,0,0],"id":78,"left_children":[1,3,-1,-1,5,-1,-1],"loss_changes":[2.555813E2,5.7613846E1,0E0,0E0,1.0625244E1,0E0,0E0],"parents":[2147483647,0,0,1,1,4,4],"right_children":[2,4,-1,-1,6,-1,-1],"split_conditions":[9E0,1.1256314E1,-5.308826E-2,-5.1305868E-2,1.3861249E-11,1.0971832E-1,-4.342098E-2],"split_indices":[0,6,0,0,5,0,0],"split_type":[0,0,0,0,0,0,0],"sum_hessian":[5.5503345E2,2.1054582E2,3.4448764E2,2.5994362E1,1.8455145E2,1.804015E2,4.149943E0],"tree_param":{"num_deleted":"0","num_feature":"10","num_nodes":"7","size_leaf_vector":"1"}},{"base_weights":[9.314637E-4,1.0576934E0,-3.7059525E-1,-4.1909646E-2,1.0984025E-1,-5.3096455E-2,1.003801E0,-3.794385E-2,1.0947303E-1],"categories":[],"categories_nodes":[],"categories_segments":[],"categories_sizes":[],"default_left":[0,0,0,0,0,0,0,0,0],"id":79,"left_children":[1,3,5,-1,-1,-1,7,-1,-1],"loss_changes":[2.1850113E2,9.163376E0,9.1290535E1,0E0,0E0,0E0,5.870552E0,0E0,0E0],"parents":[2147483647,0,0,1,1,2,2,6,6],"right_children":[2,4,6,-1,-1,-1,8,-1,-1],"split_conditions":[3.4946296E-2,8.046801E-2,7.812932E1,-4.1909646E-2,1.0984025E-1,-5.3096455E-2,1.98E2,-3.794385E-2,1.0947303E-1],"split_indices":[1,4,6,0,0,0,0,0,0],"split_type":[0,0,0,0,0,0,0,0,0],"sum_hessian":[5.54529E2,1.4376378E2,4.107652E2,3.6073287E0,1.4015645E2,3.6839346E2,4.2371746E1,2.417854E0,3.995389E1],"tree_param":{"num_deleted":"0","num_feature":"10","num_nodes":"9","size_leaf_vector":"1"}},{"base_weights":[2.6917635E-3,-4.989547E-1,1.0108737E-1,9.869974E-2,-5.132598E-1,-5.176286E-2,-2.6292374E-2],"categories":[],"categories_nodes":[],"categories_segments":[],"categories_sizes":[],"default_left":[0,0,0,0,0,0,0],"id":80,"left_children":[1,3,-1,-1,5,-1,-1],"loss_changes":[2.6944846E2,8.068825E0,0E0,0E0,2.5E-1,0E0,0E0],"parents":[2147483647,0,0,1,1,4,4],"right_children":[2,4,-1,-1,6,-1,-1],"split_conditions":[5.19518E0,4.7915136E-3,1.0108737E-1,9.869974E-2,2.5561962E0,-5.176286E-2,-2.6292374E-2],"split_indices":[5,2,0,0,2,0,0],"split_type":[0,0,0,0,0,0,0],"sum_hessian":[5.307718E2,3.5475806E2,1.7601376E2,2.7343006E0,3.5202374E2,3.4493622E2,7.087515E0],"tree_param":{"num_deleted":"0","num_feature":"10","num_nodes":"7","size_leaf_vector":"1"}},{"base_weights":[-7.1898726E-4,9.6088904E-1,-5.283485E-2,1.0080389E-1,-4.5290306E-2],"categories":[],"categories_nodes":[],"categories_segments":[],"categories_sizes":[],"default_left":[0,0,0,0,0],"id":81,"left_children":[1,3,-1,-1,-1],"loss_changes":[2.7000397E2,1.3024796E1,0E0,0E0,0E0],"parents":[2147483647,0,0,1,1],"right_children":[2,4,-1,-1,-1],"split_conditions":[3.2023728E-15,1.0999999E0,-5.283485E-2,1.0080389E-1,-4.5290306E-2],"split_indices":[5,4,0,0,0],"split_type":[0,0,0,0,0],"sum_hessian":[5.301603E2,1.8754225E2,3.4261807E2,1.8176732E2,5.774926E0],"tree_param":{"num_deleted":"0","num_feature":"10","num_nodes":"5","size_leaf_vector":"1"}},{"base_weights":[-3.9072672E-4,-5.2843124E-2,1.0014532E0,-2.7559305E-2,1.0100742E-1],"categories":[],"categories_nodes":[],"categories_segments":[],"categories_sizes":[],"default_left":[0,0,0,0,0],"id":82,"left_children":[1,-1,3,-1,-1],"loss_changes":[2.816725E2,0E0,2.3016357E0,0E0,0E0],"parents":[2147483647,0,0,2,2],"right_children":[2,-1,4,-1,-1],"split_conditions":[6.369749E0,-5.2843124E-2,2.1E1,-2.7559305E-2,1.0100742E-1],"split_indices":[1,0,0,0,0],"split_type":[0,0,0,0,0],"sum_hessian":[5.3044763E2,3.4767276E2,1.8277487E2,1.0179435E0,1.8175693E2],"tree_param":{"num_deleted":"0","num_feature":"10","num_nodes":"5","size_leaf_vector":"1"}},{"base_weights":[-1.2496766E-3,-5.2815504E-2,6.993905E-1,-5.1462766E-2,9.092754E-1,9.601693E-1,-4.617544E-2,-4.5493186E-2,1.0082885E-1],"categories":[],"categories_nodes":[],"categories_segments":[],"categories_sizes":[],"default_left":[0,0,0,0,0,0,0,0,0],"id":83,"left_children":[1,-1,3,-1,5,7,-1,-1,-1],"loss_changes":[1.9667169E2,0E0,5.873419E1,0E0,1.4072647E1,1.3305191E1,0E0,0E0,0E0],"parents":[2147483647,0,0,2,2,4,4,5,5],"right_children":[2,-1,4,-1,6,8,-1,-1,-1],"split_conditions":[1.464E3,-5.2815504E-2,-3E-1,-5.1462766E-2,1.819E3,7.021497E-1,-4.617544E-2,-4.5493186E-2,1.0082885E-1],"split_indices":[0,0,6,0,0,4,0,0,0],"split_type":[0,0,0,0,0,0,0,0,0],"sum_hessian":[5.307381E2,3.0306732E2,2.2767079E2,3.3344913E1,1.9432588E2,1.8765945E2,6.6664243E0,5.893308E0,1.8176614E2],"tree_param":{"num_deleted":"0","num_feature":"10","num_nodes":"9","size_leaf_vector":"1"}},{"base_weights":[1.18528E-3,-5.2815504E-2,7.0720744E-1,1.0086105E-1,4.2672455E-2,1.0050879E-1,-5.185041E-2],"categories":[],"categories_nodes":[],"categories_segments":[],"categories_sizes":[],"default_left":[0,0,0,0,0,0,0],"id":84,"left_children":[1,-1,3,-1,5,-1,-1],"loss_changes":[1.9883702E2,0E0,4.5618317E1,0E0,3.9503876E1,0E0,0E0],"parents":[2147483647,0,0,2,2,4,4],"right_children":[2,-1,4,-1,6,-1,-1],"split_conditions":[1.464E3,-5.2815504E-2,-3E-1,1.0086105E-1,7.021497E-1,1.0050879E-1,-5.185041E-2],"split_indices":[0,0,6,0,4,0,0],"split_type":[0,0,0,0,0,0,0],"sum_hessian":[5.3004016E2,3.0306732E2,2.2697287E2,1.5579398E2,7.117888E1,2.5925583E1,4.52533E1],"tree_param":{"num_deleted":"0","num_feature":"10","num_nodes":"7","size_leaf_vector":"1"}},{"base_weights":[-6.6855527E-4,-5.279327E-2,5.456762E-1,1.0058224E-1,-5.233183E-2],"categories":[],"categories_nodes":[],"categories_segments":[],"categories_sizes":[],"default_left":[0,0,0,0,0],"id":85,"left_children":[1,-1,3,-1,-1],"loss_changes":[1.5338286E2,0E0,1.2915463E2,0E0,0E0],"parents":[2147483647,0,0,2,2],"right_children":[2,-1,4,-1,-1],"split_conditions":[1.1113231E0,-5.279327E-2,1.2634437E0,1.0058224E-1,-5.233183E-2],"split_indices":[3,0,3,0,0],"split_type":[0,0,0,0,0],"sum_hessian":[5.304537E2,2.699577E2,2.60496E2,1.8214932E2,7.834667E1],"tree_param":{"num_deleted":"0","num_feature":"10","num_nodes":"5","size_leaf_vector":"1"}},{"base_weights":[-3.1812067E-4,-5.2834548E-2,9.7181404E-1,1.0027051E0,-4.2477027E-2,-3.287348E-2,1.0122327E-1],"categories":[],"categories_nodes":[],"categories_segments":[],"categories_sizes":[],"default_left":[0,0,0,0,0,0,0],"id":86,"left_children":[1,-1,3,5,-1,-1,-1],"loss_changes":[2.7353625E2,0E0,8.517868E0,2.6643524E0,0E0,0E0,0E0],"parents":[2147483647,0,0,2,2,3,3],"right_children":[2,-1,4,6,-1,-1,-1],"split_conditions":[1.4075013E0,-5.2834548E-2,2.8621008E0,7.1E2,-4.2477027E-2,-3.287348E-2,1.0122327E-1],"split_indices":[2,0,3,0,0,0,0],"split_type":[0,0,0,0,0,0,0],"sum_hessian":[5.3088434E2,3.443191E2,1.8656528E2,1.8280386E2,3.7614095E0,1.0607684E0,1.817431E2],"tree_param":{"num_deleted":"0","num_feature":"10","num_nodes":"7","size_leaf_vector":"1"}},{"base_weights":[-5.8016594E-4,-5.282977E-2,8.966648E-1,1.00422E-1,-4.9726743E-2],"categories":[],"categories_nodes":[],"categories_segments":[],"categories_sizes":[],"default_left":[0,0,0,0,0],"id":87,"left_children":[1,-1,3,-1,-1],"loss_changes":[2.5228523E2,0E0,3.0082977E1,0E0,0E0],"parents":[2147483647,0,0,2,2],"right_children":[2,-1,4,-1,-1],"split_conditions":[1.3155551E0,-5.282977E-2,2.3471047E-1,1.00422E-1,-4.9726743E-2],"split_indices":[3,0,1,0,0],"split_type":[0,0,0,0,0],"sum_hessian":[5.3081805E2,3.3449496E2,1.9632309E2,1.8251953E2,1.3803548E1],"tree_param":{"num_deleted":"0","num_feature":"10","num_nodes":"5","size_leaf_vector":"1"}},{"base_weights":[-9.465046E-4,8.018937E-1,-5.2823823E-2,-5.0927963E-2,9.74577E-1,-4.2676378E-2,1.0067799E-1],"categories":[],"categories_nodes":[],"categories_segments":[],"categories_sizes":[],"default_left":[0,0,0,0,0,0,0],"id":88,"left_children":[1,3,-1,-1,5,-1,-1],"loss_changes":[2.2550908E2,4.8309967E1,0E0,0E0,8.865845E0,0E0,0E0],"parents":[2147483647,0,0,1,1,4,4],"right_children":[2,4,-1,-1,6,-1,-1],"split_conditions":[9E0,1.1256314E1,-5.2823823E-2,-5.0927963E-2,2.6233548E-1,-4.2676378E-2,1.0067799E-1],"split_indices":[0,6,0,0,3,0,0],"split_type":[0,0,0,0,0,0,0],"sum_hessian":[5.307009E2,2.1017435E2,3.2052658E2,2.4232132E1,1.8594221E2,3.9017465E0,1.8204047E2],"tree_param":{"num_deleted":"0","num_feature":"10","num_nodes":"7","size_leaf_vector":"1"}},{"base_weights":[9.967744E-4,9.7227573E-1,-3.655549E-1,-4.1168302E-2,1.0081457E-1,-5.283258E-2,9.229656E-1,-3.7214447E-2,1.00367464E-1],"categories":[],"categories_nodes":[],"categories_segments":[],"categories_sizes":[],"default_left":[0,0,0,0,0,0,0,0,0],"id":89,"left_children":[1,3,5,-1,-1,-1,7,-1,-1],"loss_changes":[1.8951295E2,7.6551666E0,8.154131E1,0E0,0E0,0E0,4.9421616E0,0E0,0E0],"parents":[2147483647,0,0,1,1,2,2,6,6],"right_children":[2,4,6,-1,-1,-1,8,-1,-1],"split_conditions":[3.4946296E-2,8.046801E-2,7.812932E1,-4.1168302E-2,1.0081457E-1,-5.283258E-2,1.98E2,-3.7214447E-2,1.00367464E-1],"split_indices":[1,4,6,0,0,0,0,0,0],"split_type":[0,0,0,0,0,0,0,0,0],"sum_hessian":[5.3030566E2,1.4484547E2,3.854602E2,3.3946257E0,1.4145085E2,3.4275238E2,4.2707832E1,2.2935226E0,4.0414307E1],"tree_param":{"num_deleted":"0","num_feature":"10","num_nodes":"9","size_leaf_vector":"1"}},{"base_weights":[3.1155932E-3,-4.9478632E-1,9.380558E-2,1.0137334E-1,-5.0861967E-1,-5.126589E-1,-1.979148E-2,-5.1585175E-2,-3.1363185E-2],"categories":[],"categories_nodes":[],"categories_segments":[],"categories_sizes":[],"default_left":[0,0,0,0,0,0,0,0,0],"id":90,"left_children":[1,3,-1,-1,5,7,-1,-1,-1],"loss_changes":[2.363075E2,7.427849E0,0E0,0E0,3.1130219E-1,4.4128418E-2,0E0,0E0,0E0],"parents":[2147483647,0,0,1,1,4,4,5,5],"right_children":[2,4,-1,-1,6,8,-1,-1,-1],"split_conditions":[5.19518E0,8.046801E-2,9.380558E-2,1.0137334E-1,8.164575E1,2.5561962E0,-1.979148E-2,-5.1585175E-2,-3.1363185E-2],"split_indices":[5,4,0,0,6,2,0,0,0],"split_type":[0,0,0,0,0,0,0,0,0],"sum_hessian":[5.056359E2,3.302384E2,1.753975E2,2.3440056E0,3.278944E2,3.230448E2,4.849612E0,3.1637753E2,6.6672635E0],"tree_param":{"num_deleted":"0","num_feature":"10","num_nodes":"9","size_leaf_vector":"1"}},{"base_weights":[-7.942948E-4,8.9314693E-1,-5.2586317E-2,9.3533255E-2,-4.4639558E-2],"categories":[],"categories_nodes":[],"categories_segments":[],"categories_sizes":[],"default_left":[0,0,0,0,0],"id":91,"left_children":[1,3,-1,-1,-1],"loss_changes":[2.3781125E2,1.101152E1,0E0,0E0,0E0],"parents":[2147483647,0,0,1,1],"right_children":[2,4,-1,-1,-1],"split_conditions":[3.2023728E-15,1.0999999E0,-5.2586317E-2,9.3533255E-2,-4.4639558E-2],"split_indices":[5,4,0,0,0],"split_type":[0,0,0,0,0],"sum_hessian":[5.0464838E2,1.86473E2,3.1817535E2,1.8107233E2,5.400677E0],"tree_param":{"num_deleted":"0","num_feature":"10","num_nodes":"5","size_leaf_vector":"1"}},{"base_weights":[-4.5376967E-4,-5.2594867E-2,9.291326E-2],"categories":[],"categories_nodes":[],"categories_segments":[],"categories_sizes":[],"default_left":[0,0,0],"id":92,"left_children":[1,-1,-1],"loss_changes":[2.4764647E2,0E0,0E0],"parents":[2147483647,0,0],"right_children":[2,-1,-1],"split_conditions":[6.369749E0,-5.2594867E-2,9.291326E-2],"split_indices":[1,0,0],"split_type":[0,0,0],"sum_hessian":[5.0495993E2,3.2287372E2,1.820862E2],"tree_param":{"num_deleted":"0","num_feature":"10","num_nodes":"3","size_leaf_vector":"1"}},{"base_weights":[-1.3832721E-3,-5.2565753E-2,6.5732604E-1,-5.1120367E-2,8.468426E-1,8.924533E-1,-4.554715E-2,-4.4859197E-2,9.3558215E-2],"categories":[],"categories_nodes":[],"categories_segments":[],"categories_sizes":[],"default_left":[0,0,0,0,0,0,0,0,0],"id":93,"left_children":[1,-1,3,-1,5,7,-1,-1,-1],"loss_changes":[1.7518675E2,0E0,5.0220062E1,0E0,1.1919342E1,1.127005E1,0E0,0E0,0E0],"parents":[2147483647,0,0,2,2,4,4,5,5],"right_children":[2,-1,4,-1,6,8,-1,-1,-1],"split_conditions":[1.464E3,-5.2565753E-2,-3E-1,-5.1120367E-2,1.819E3,7.021497E-1,-4.554715E-2,-4.4859197E-2,9.3558215E-2],"split_indices":[0,0,6,0,0,4,0,0,0],"split_type":[0,0,0,0,0,0,0,0,0],"sum_hessian":[5.052808E2,2.814631E2,2.238177E2,3.0997082E1,1.9282063E2,1.8660008E2,6.220544E0,5.521251E0,1.8107883E2],"tree_param":{"num_deleted":"0","num_feature":"10","num_nodes":"9","size_leaf_vector":"1"}},{"base_weights":[1.2636915E-3,-5.2565753E-2,6.650525E-1,9.358613E-2,4.208798E-2,9.311025E-2,-5.153308E-2],"categories":[],"categories_nodes":[],"categories_segments":[],"categories_sizes":[],"default_left":[0,0,0,0,0,0,0],"id":94,"left_children":[1,-1,3,-1,5,-1,-1],"loss_changes":[1.7721945E2,0E0,3.7787422E1,0E0,3.4665344E1,0E0,0E0],"parents":[2147483647,0,0,2,2,4,4],"right_children":[2,-1,4,-1,6,-1,-1],"split_conditions":[1.464E3,-5.2565753E-2,-3E-1,9.358613E-2,7.021497E-1,9.311025E-2,-5.153308E-2],"split_indices":[0,0,6,0,4,0,0],"split_type":[0,0,0,0,0,0,0],"sum_hessian":[5.0468283E2,2.814631E2,2.2321973E2,1.5523518E2,6.798454E1,2.5941174E1,4.204337E1],"tree_param":{"num_deleted":"0","num_feature":"10","num_nodes":"7","size_leaf_vector":"1"}},{"base_weights":[-7.422141E-4,-5.2541655E-2,5.165089E-1,9.3298964E-2,-5.2048445E-2],"categories":[],"categories_nodes":[],"categories_segments":[],"categories_sizes":[],"default_left":[0,0,0,0,0],"id":95,"left_children":[1,-1,3,-1,-1],"loss_changes":[1.3759482E2,0E0,1.1075018E2,0E0,0E0],"parents":[2147483647,0,0,2,2],"right_children":[2,-1,4,-1,-1],"split_conditions":[1.1113231E0,-5.2541655E-2,1.2634437E0,9.3298964E-2,-5.2048445E-2],"split_indices":[3,0,3,0,0],"split_type":[0,0,0,0,0],"sum_hessian":[5.0500333E2,2.5069485E2,2.5430846E2,1.8151007E2,7.2798386E1],"tree_param":{"num_deleted":"0","num_feature":"10","num_nodes":"5","size_leaf_vector":"1"}},{"base_weights":[-2.9926142E-4,-5.2585907E-2,9.023921E-1,9.3014246E-1,-4.175537E-2,-3.251209E-2,9.391131E-2],"categories":[],"categories_nodes":[],"categories_segments":[],"categories_sizes":[],"default_left":[0,0,0,0,0,0,0],"id":96,"left_children":[1,-1,3,5,-1,-1,-1],"loss_changes":[2.4076218E2,0E0,7.228607E0,2.368332E0,0E0,0E0,0E0],"parents":[2147483647,0,0,2,2,3,3],"right_children":[2,-1,4,6,-1,-1,-1],"split_conditions":[1.4075013E0,-5.2585907E-2,2.8621008E0,7.1E2,-4.175537E-2,-3.251209E-2,9.391131E-2],"split_indices":[2,0,3,0,0,0,0],"split_type":[0,0,0,0,0,0,0],"sum_hessian":[5.05489E2,3.1974585E2,1.8574315E2,1.8220775E2,3.5353966E0,1.0428286E0,1.8116493E2],"tree_param":{"num_deleted":"0","num_feature":"10","num_nodes":"7","size_leaf_vector":"1"}},{"base_weights":[-6.4746867E-4,-5.2580684E-2,8.3501023E-1,9.31389E-2,-4.9289178E-2],"categories":[],"categories_nodes":[],"categories_segments":[],"categories_sizes":[],"default_left":[0,0,0,0,0],"id":97,"left_children":[1,-1,3,-1,-1],"loss_changes":[2.2269151E2,0E0,2.552156E1,0E0,0E0],"parents":[2147483647,0,0,2,2],"right_children":[2,-1,4,-1,-1],"split_conditions":[1.3155551E0,-5.2580684E-2,-7.25E0,9.31389E-2,-4.9289178E-2],"split_indices":[3,0,6,0,0],"split_type":[0,0,0,0,0],"sum_hessian":[5.054389E2,3.1061026E2,1.9482863E2,1.8192328E2,1.2905348E1],"tree_param":{"num_deleted":"0","num_feature":"10","num_nodes":"5","size_leaf_vector":"1"}},{"base_weights":[-1.0535801E-3,7.5014704E-1,-5.257448E-2,-5.055309E-2,9.050317E-1,9.340996E-2,-4.209069E-2],"categories":[],"categories_nodes":[],"categories_segments":[],"categories_sizes":[],"default_left":[0,0,0,0,0,0,0],"id":98,"left_children":[1,3,-1,-1,5,-1,-1],"loss_changes":[1.9993555E2,4.1027794E1,0E0,0E0,7.5641937E0,0E0,0E0],"parents":[2147483647,0,0,1,1,4,4],"right_children":[2,4,-1,-1,6,-1,-1],"split_conditions":[9E0,1.1256314E1,-5.257448E-2,-5.055309E-2,1.3861249E-11,9.340996E-2,-4.209069E-2],"split_indices":[0,6,0,0,5,0,0],"split_type":[0,0,0,0,0,0,0],"sum_hessian":[5.05259E2,2.0760341E2,2.976556E2,2.254698E1,1.8505643E2,1.8137573E2,3.680697E0],"tree_param":{"num_deleted":"0","num_feature":"10","num_nodes":"7","size_leaf_vector":"1"}},{"base_weights":[9.931864E-4,9.029188E-1,-3.608799E-1,-4.0423803E-2,9.351666E-2,-5.2583743E-2,8.570771E-1,9.300305E-2,-3.706838E-2],"categories":[],"categories_nodes":[],"categories_segments":[],"categories_sizes":[],"default_left":[0,0,0,0,0,0,0,0,0],"id":99,"left_children":[1,3,5,-1,-1,-1,7,-1,-1],"loss_changes":[1.654652E2,6.4970856E0,7.3141396E1,0E0,0E0,0E0,4.2443485E0,0E0,0E0],"parents":[2147483647,0,0,1,1,2,2,6,6],"right_children":[2,4,6,-1,-1,-1,8,-1,-1],"split_conditions":[3.4946296E-2,8.046801E-2,7.812932E1,-4.0423803E-2,9.351666E-2,-5.2583743E-2,7.9571304E1,9.300305E-2,-3.706838E-2],"split_indices":[1,4,6,0,0,0,6,0,0],"split_type":[0,0,0,0,0,0,0,0,0],"sum_hessian":[5.049686E2,1.4416338E2,3.6080524E2,3.1931782E0,1.409702E2,3.1826794E2,4.2537273E1,4.0380375E1,2.1568966E0],"tree_param":{"num_deleted":"0","num_feature":"10","num_nodes":"9","size_leaf_vector":"1"}},{"base_weights":[3.6152934E-3,-4.9058563E-1,8.785448E-2,8.588589E-2,-5.0607556E-1,-5.110968E-1,-2.3507772E-2,-2.6925564E-2,-5.1334012E-2],"categories":[],"categories_nodes":[],"categories_segments":[],"categories_sizes":[],"default_left":[0,0,0,0,0,0,0,0,0],"id":100,"left_children":[1,3,-1,-1,5,7,-1,-1,-1],"loss_changes":[2.0836148E2,6.8715897E0,0E0,0E0,2.9499054E-1,2.38266E-2,0E0,0E0,0E0],"parents":[2147483647,0,0,1,1,4,4,5,5],"right_children":[2,4,-1,-1,6,8,-1,-1,-1],"split_conditions":[5.19518E0,4.7915136E-3,8.785448E-2,8.588589E-2,2.5561962E0,1.7136082E-2,-2.3507772E-2,-2.6925564E-2,-5.1334012E-2],"split_indices":[5,2,0,0,2,1,0,0,0],"split_type":[0,0,0,0,0,0,0,0,0],"sum_hessian":[4.7988535E2,3.0694678E2,1.7293855E2,2.8654904E0,3.040813E2,2.976797E2,6.4016027E0,3.8482435E0,2.9383145E2],"tree_param":{"num_deleted":"0","num_feature":"10","num_nodes":"9","size_leaf_vector":"1"}},{"base_weights":[-8.889509E-4,8.3741003E-1,-5.23525E-2,8.7575376E-2,-4.3973178E-2],"categories":[],"categories_nodes":[],"categories_segments":[],"categories_sizes":[],"default_left":[0,0,0,0,0],"id":101,"left_children":[1,3,-1,-1,-1],"loss_changes":[2.1049612E2,9.420395E0,0E0,0E0,0E0],"parents":[2147483647,0,0,1,1],"right_children":[2,4,-1,-1,-1],"split_conditions":[3.2023728E-15,1.0999999E0,-5.23525E-2,8.7575376E-2,-4.3973178E-2],"split_indices":[5,4,0,0,0],"split_type":[0,0,0,0,0],"sum_hessian":[4.7844672E2,1.8350526E2,2.9494147E2,1.7846158E2,5.043679E0],"tree_param":{"num_deleted":"0","num_feature":"10","num_nodes":"5","size_leaf_vector":"1"}},{"base_weights":[-5.031149E-4,-5.2357923E-2,8.698487E-2],"categories":[],"categories_nodes":[],"categories_segments":[],"categories_sizes":[],"default_left":[0,0,0],"id":102,"left_children":[1,-1,-1],"loss_changes":[2.1892747E2,0E0,0E0],"parents":[2147483647,0,0],"right_children":[2,-1,-1],"split_conditions":[6.8158364E0,-5.2357923E-2,8.698487E-2],"split_indices":[4,0,0],"split_type":[0,0,0],"sum_hessian":[4.7888382E2,2.9936545E2,1.7951836E2],"tree_param":{"num_deleted":"0","num_feature":"10","num_nodes":"3","size_leaf_vector":"1"}},{"base_weights":[-1.5368636E-3,-5.2330554E-2,6.2192416E-1,-5.0783034E-2,7.952267E-1,8.3673537E-1,-4.4908028E-2,-4.4209987E-2,8.760031E-2],"categories":[],"categories_nodes":[],"categories_segments":[],"categories_sizes":[],"default_left":[0,0,0,0,0,0,0,0,0],"id":103,"left_children":[1,-1,3,-1,5,7,-1,-1,-1],"loss_changes":[1.5651306E2,0E0,4.332189E1,0E0,1.021196E1,9.659454E0,0E0,0E0,0E0],"parents":[2147483647,0,0,2,2,4,4,5,5],"right_children":[2,-1,4,-1,6,8,-1,-1,-1],"split_conditions":[1.464E3,-5.2330554E-2,-3E-1,-5.0783034E-2,1.819E3,7.021497E-1,-4.4908028E-2,-4.4209987E-2,8.760031E-2],"split_indices":[0,0,6,0,0,4,0,0,0],"split_type":[0,0,0,0,0,0,0,0,0],"sum_hessian":[4.7913043E2,2.609252E2,2.1820522E2,2.8763895E1,1.8944131E2,1.8364276E2,5.798564E0,5.1652985E0,1.7847746E2],"tree_param":{"num_deleted":"0","num_feature":"10","num_nodes":"9","size_leaf_vector":"1"}},{"base_weights":[1.3270371E-3,-5.2330554E-2,6.296164E-1,8.762387E-2,4.157147E-2,8.702052E-2,-5.1223602E-2],"categories":[],"categories_nodes":[],"categories_segments":[],"categories_sizes":[],"default_left":[0,0,0,0,0,0,0],"id":104,"left_children":[1,-1,3,-1,5,-1,-1],"loss_changes":[1.5842735E2,0E0,3.1681992E1,0E0,3.0583275E1,0E0,0E0],"parents":[2147483647,0,0,2,2,4,4],"right_children":[2,-1,4,-1,6,-1,-1],"split_conditions":[1.464E3,-5.2330554E-2,-3E-1,8.762387E-2,7.021497E-1,8.702052E-2,-5.1223602E-2],"split_indices":[0,0,6,0,4,0,0],"split_type":[0,0,0,0,0,0,0],"sum_hessian":[4.7863522E2,2.609252E2,2.1771E2,1.5303712E2,6.467289E1,2.5679165E1,3.899373E1],"tree_param":{"num_deleted":"0","num_feature":"10","num_nodes":"7","size_leaf_vector":"1"}},{"base_weights":[-8.334268E-4,-5.2304443E-2,4.916334E-1,8.732649E-2,-5.177608E-2],"categories":[],"categories_nodes":[],"categories_segments":[],"categories_sizes":[],"default_left":[0,0,0,0,0],"id":105,"left_children":[1,-1,3,-1,-1],"loss_changes":[1.2366464E2,0E0,9.578595E1,0E0,0E0],"parents":[2147483647,0,0,2,2],"right_children":[2,-1,4,-1,-1],"split_conditions":[1.1113231E0,-5.2304443E-2,1.2634437E0,8.732649E-2,-5.177608E-2],"split_indices":[3,0,3,0,0],"split_type":[0,0,0,0,0],"sum_hessian":[4.788645E2,2.3238342E2,2.4648108E2,1.7895622E2,6.7524864E1],"tree_param":{"num_deleted":"0","num_feature":"10","num_nodes":"5","size_leaf_vector":"1"}},{"base_weights":[-3.089608E-4,-5.235198E-2,8.4526354E-1,-4.08402E-2,8.706593E-2],"categories":[],"categories_nodes":[],"categories_segments":[],"categories_sizes":[],"default_left":[0,0,0,0,0],"id":106,"left_children":[1,-1,3,-1,-1],"loss_changes":[2.1297742E2,0E0,6.214142E0,0E0,0E0],"parents":[2147483647,0,0,2,2],"right_children":[2,-1,4,-1,-1],"split_conditions":[1.4075013E0,-5.235198E-2,1E0,-4.08402E-2,8.706593E-2],"split_indices":[2,0,7,0,0],"split_type":[0,0,0,0,0],"sum_hessian":[4.7939963E2,2.9638672E2,1.8301291E2,3.3342755E0,1.7967863E2],"tree_param":{"num_deleted":"0","num_feature":"10","num_nodes":"5","size_leaf_vector":"1"}},{"base_weights":[-7.377896E-4,-5.234626E-2,7.839221E-1,8.7148905E-2,-4.8877604E-2],"categories":[],"categories_nodes":[],"categories_segments":[],"categories_sizes":[],"default_left":[0,0,0,0,0],"id":107,"left_children":[1,-1,3,-1,-1],"loss_changes":[1.9743831E2,0E0,2.1875275E1,0E0,0E0],"parents":[2147483647,0,0,2,2],"right_children":[2,-1,4,-1,-1],"split_conditions":[1.3155551E0,-5.234626E-2,1.5123541E0,8.7148905E-2,-4.8877604E-2],"split_indices":[3,0,2,0,0],"split_type":[0,0,0,0,0],"sum_hessian":[4.7936713E2,2.8790405E2,1.9146309E2,1.794326E2,1.2030475E1],"tree_param":{"num_deleted":"0","num_feature":"10","num_nodes":"5","size_leaf_vector":"1"}},{"base_weights":[-1.1807133E-3,7.070066E-1,-5.2339822E-2,-5.017963E-2,8.4787035E-1,-4.1310634E-2,8.743803E-2],"categories":[],"categories_nodes":[],"categories_segments":[],"categories_sizes":[],"default_left":[0,0,0,0,0,0,0],"id":108,"left_children":[1,3,-1,-1,5,-1,-1],"loss_changes":[1.7793275E2,3.5196373E1,0E0,0E0,6.4873657E0,0E0,0E0],"parents":[2147483647,0,0,1,1,4,4],"right_children":[2,4,-1,-1,6,-1,-1],"split_conditions":[9E0,1.1256314E1,-5.2339822E-2,-5.017963E-2,2.6233548E-1,-4.1310634E-2,8.743803E-2],"split_indices":[0,6,0,0,3,0,0],"split_type":[0,0,0,0,0,0,0],"sum_hessian":[4.7912268E2,2.032026E2,2.7592007E2,2.0940695E1,1.8226192E2,3.452582E0,1.7880933E2],"tree_param":{"num_deleted":"0","num_feature":"10","num_nodes":"7","size_leaf_vector":"1"}},{"base_weights":[1.0421796E-3,8.461291E-1,-3.565573E-1,-3.965035E-2,8.75565E-2,-5.2349716E-2,8.0233526E-1,8.6953565E-2,-3.6373816E-2],"categories":[],"categories_nodes":[],"categories_segments":[],"categories_sizes":[],"default_left":[0,0,0,0,0,0,0,0,0],"id":109,"left_children":[1,3,5,-1,-1,-1,7,-1,-1],"loss_changes":[1.4534511E2,5.577942E0,6.5801834E1,0E0,0E0,0E0,3.6816654E0,0E0,0E0],"parents":[2147483647,0,0,1,1,2,2,6,6],"right_children":[2,4,6,-1,-1,-1,8,-1,-1],"split_conditions":[3.4946296E-2,8.046801E-2,7.812932E1,-3.965035E-2,8.75565E-2,-5.2349716E-2,7.9571304E1,8.6953565E-2,-3.6373816E-2],"split_indices":[1,4,6,0,0,0,6,0,0],"split_type":[0,0,0,0,0,0,0,0,0],"sum_hessian":[4.7895413E2,1.4200313E2,3.3695102E2,2.9974163E0,1.390057E2,2.9500366E2,4.1947353E1,3.990211E1,2.0452387E0],"tree_param":{"num_deleted":"0","num_feature":"10","num_nodes":"9","size_leaf_vector":"1"}},{"base_weights":[4.149345E-3,-4.8645598E-1,8.29187E-2,8.992138E-2,-5.0144345E-1,-5.061131E-1,-1.627328E-2,-5.097946E-2,-2.9039264E-2],"categories":[],"categories_nodes":[],"categories_segments":[],"categories_sizes":[],"default_left":[0,0,0,0,0,0,0,0,0],"id":110,"left_children":[1,3,-1,-1,5,7,-1,-1,-1],"loss_changes":[1.8448665E2,6.386856E0,0E0,0E0,3.6589813E-1,7.360077E-2,0E0,0E0,0E0],"parents":[2147483647,0,0,1,1,4,4,5,5],"right_children":[2,4,-1,-1,6,8,-1,-1,-1],"split_conditions":[5.19518E0,8.046801E-2,8.29187E-2,8.992138E-2,8.164575E1,2.5561962E0,-1.627328E-2,-5.097946E-2,-2.9039264E-2],"split_indices":[5,4,0,0,6,2,0,0,0],"split_type":[0,0,0,0,0,0,0,0,0],"sum_hessian":[4.5378726E2,2.8482663E2,1.6896063E2,2.4164417E0,2.824102E2,2.7808215E2,4.3280463E0,2.7207565E2,6.006484E0],"tree_param":{"num_deleted":"0","num_feature":"10","num_nodes":"9","size_leaf_vector":"1"}},{"base_weights":[-9.948967E-4,7.909449E-1,-5.2132588E-2,8.2625546E-2,-4.3288026E-2],"categories":[],"categories_nodes":[],"categories_segments":[],"categories_sizes":[],"default_left":[0,0,0,0,0],"id":111,"left_children":[1,3,-1,-1,-1],"loss_changes":[1.870461E2,8.135483E0,0E0,0E0,0E0],"parents":[2147483647,0,0,1,1],"right_children":[2,4,-1,-1,-1],"split_conditions":[3.2023728E-15,1.0999999E0,-5.2132588E-2,8.2625546E-2,-4.3288026E-2],"split_indices":[5,4,0,0,0],"split_type":[0,0,0,0,0],"sum_hessian":[4.5191666E2,1.7898412E2,2.7293253E2,1.7428053E2,4.7035923E0],"tree_param":{"num_deleted":"0","num_feature":"10","num_nodes":"5","size_leaf_vector":"1"}},{"base_weights":[-5.588316E-4,-5.2144993E-2,8.203827E-2],"categories":[],"categories_nodes":[],"categories_segments":[],"categories_sizes":[],"default_left":[0,0,0],"id":112,"left_children":[1,-1,-1],"loss_changes":[1.9434013E2,0E0,0E0],"parents":[2147483647,0,0],"right_children":[2,-1,-1],"split_conditions":[6.369749E0,-5.2144993E-2,8.203827E-2],"split_indices":[1,0,0],"split_type":[0,0,0],"sum_hessian":[4.5246762E2,2.770457E2,1.7542192E2],"tree_param":{"num_deleted":"0","num_feature":"10","num_nodes":"3","size_leaf_vector":"1"}},{"base_weights":[-1.7032422E-3,-5.210906E-2,5.918342E-1,-5.0449323E-2,7.520149E-1,7.9027754E-1,-4.425482E-2,-4.3544542E-2,8.265043E-2],"categories":[],"categories_nodes":[],"categories_segments":[],"categories_sizes":[],"default_left":[0,0,0,0,0,0,0,0,0],"id":113,"left_children":[1,-1,3,-1,5,7,-1,-1,-1],"loss_changes":[1.4015721E2,0E0,3.764041E1,0E0,8.829895E0,8.3585205E0,0E0,0E0,0E0],"parents":[2147483647,0,0,2,2,4,4,5,5],"right_children":[2,-1,4,-1,6,8,-1,-1,-1],"split_conditions":[1.464E3,-5.210906E-2,-3E-1,-5.0449323E-2,1.819E3,7.021497E-1,-4.425482E-2,-4.3544542E-2,8.265043E-2],"split_indices":[0,0,6,0,0,4,0,0,0],"split_type":[0,0,0,0,0,0,0,0,0],"sum_hessian":[4.5264832E2,2.4146841E2,2.1117992E2,2.664737E1,1.8453255E2,1.7913322E2,5.399318E0,4.8260164E0,1.7430722E2],"tree_param":{"num_deleted":"0","num_feature":"10","num_nodes":"9","size_leaf_vector":"1"}},{"base_weights":[1.3846975E-3,-5.210906E-2,5.995441E-1,8.266957E-2,4.113058E-2,8.193694E-2,-5.0920565E-2],"categories":[],"categories_nodes":[],"categories_segments":[],"categories_sizes":[],"default_left":[0,0,0,0,0,0,0],"id":114,"left_children":[1,-1,3,-1,5,-1,-1],"loss_changes":[1.4196538E2,0E0,2.6830002E1,0E0,2.709646E1,0E0,0E0],"parents":[2147483647,0,0,2,2,4,4],"right_children":[2,-1,4,-1,6,-1,-1],"split_conditions":[1.464E3,-5.210906E-2,-3E-1,8.266957E-2,7.021497E-1,8.193694E-2,-5.0920565E-2],"split_indices":[0,0,6,0,4,0,0],"split_type":[0,0,0,0,0,0,0],"sum_hessian":[4.5225537E2,2.4146841E2,2.1078696E2,1.4949495E2,6.129201E1,2.518652E1,3.610549E1],"tree_param":{"num_deleted":"0","num_feature":"10","num_nodes":"7","size_leaf_vector":"1"}},{"base_weights":[-9.3942665E-4,-5.208078E-2,4.702345E-1,8.235904E-2,-5.151355E-2],"categories":[],"categories_nodes":[],"categories_segments":[],"categories_sizes":[],"default_left":[0,0,0,0,0],"id":115,"left_children":[1,-1,3,-1,-1],"loss_changes":[1.1130374E2,0E0,8.3418884E1,0E0,0E0],"parents":[2147483647,0,0,2,2],"right_children":[2,-1,4,-1,-1],"split_conditions":[1.1113231E0,-5.208078E-2,1.2634437E0,8.235904E-2,-5.151355E-2],"split_indices":[3,0,3,0,0],"split_type":[0,0,0,0,0],"sum_hessian":[4.5239682E2,2.1503416E2,2.3736266E2,1.7483176E2,6.2530884E1],"tree_param":{"num_deleted":"0","num_feature":"10","num_nodes":"5","size_leaf_vector":"1"}},{"base_weights":[-2.438779E-4,-5.2131902E-2,7.973895E-1,8.209684E-1,-4.042656E-2,-3.3087026E-2,8.2971446E-2],"categories":[],"categories_nodes":[],"categories_segments":[],"categories_sizes":[],"default_left":[0,0,0,0,0,0,0],"id":116,"left_children":[1,-1,3,5,-1,-1,-1],"loss_changes":[1.8913904E2,0E0,5.426758E0,2.0544739E0,0E0,0E0,0E0],"parents":[2147483647,0,0,2,2,3,3],"right_children":[2,-1,4,6,-1,-1,-1],"split_conditions":[1.4075013E0,-5.2131902E-2,2.8621008E0,7.1E2,-4.042656E-2,-3.3087026E-2,8.2971446E-2],"split_indices":[2,0,3,0,0,0,0],"split_type":[0,0,0,0,0,0,0],"sum_hessian":[4.530691E2,2.7425266E2,1.7881642E2,1.7568591E2,3.130514E0,1.0464008E0,1.7463951E2],"tree_param":{"num_deleted":"0","num_feature":"10","num_nodes":"7","size_leaf_vector":"1"}},{"base_weights":[-8.411199E-4,-5.212581E-2,7.411002E-1,8.2166076E-2,-4.849449E-2],"categories":[],"categories_nodes":[],"categories_segments":[],"categories_sizes":[],"default_left":[0,0,0,0,0],"id":117,"left_children":[1,-1,3,-1,-1],"loss_changes":[1.7567041E2,0E0,1.8924248E1,0E0,0E0],"parents":[2147483647,0,0,2,2],"right_children":[2,-1,4,-1,-1],"split_conditions":[1.3155551E0,-5.212581E-2,2.3471047E-1,8.2166076E-2,-4.849449E-2],"split_indices":[3,0,1,0,0],"split_type":[0,0,0,0,0],"sum_hessian":[4.5296414E2,2.6640097E2,1.8656316E2,1.7536984E2,1.1193321E1],"tree_param":{"num_deleted":"0","num_feature":"10","num_nodes":"5","size_leaf_vector":"1"}},{"base_weights":[-1.322166E-3,6.7058104E-1,-5.2118916E-2,-4.9807355E-2,8.0022967E-1,8.248663E-2,-4.068839E-2],"categories":[],"categories_nodes":[],"categories_segments":[],"categories_sizes":[],"default_left":[0,0,0,0,0,0,0],"id":118,"left_children":[1,3,-1,-1,5,-1,-1],"loss_changes":[1.5881082E2,3.0448051E1,0E0,0E0,5.6561356E0,0E0,0E0],"parents":[2147483647,0,0,1,1,4,4],"right_children":[2,4,-1,-1,6,-1,-1],"split_conditions":[9E0,1.1256314E1,-5.2118916E-2,-4.9807355E-2,1.3861249E-11,8.248663E-2,-4.068839E-2],"split_indices":[0,6,0,0,5,0,0],"split_type":[0,0,0,0,0,0,0],"sum_hessian":[4.5265356E2,1.9732741E2,2.5532614E2,1.9421352E1,1.7790605E2,1.7465804E2,3.248026E0],"tree_param":{"num_deleted":"0","num_feature":"10","num_nodes":"7","size_leaf_vector":"1"}},{"base_weights":[1.0588836E-3,7.9868764E-1,-3.5255253E-1,-3.8873676E-2,8.259436E-2,-5.2129626E-2,7.5663453E-1,8.191005E-2,-3.5576303E-2],"categories":[],"categories_nodes":[],"categories_segments":[],"categories_sizes":[],"default_left":[0,0,0,0,0,0,0,0,0],"id":119,"left_children":[1,3,5,-1,-1,-1,7,-1,-1],"loss_changes":[1.2821933E2,4.8401794E0,5.9346165E1,0E0,0E0,0E0,3.2096863E0,0E0,0E0],"parents":[2147483647,0,0,1,1,2,2,6,6],"right_children":[2,4,6,-1,-1,-1,8,-1,-1],"split_conditions":[3.4946296E-2,8.046801E-2,7.812932E1,-3.8873676E-2,8.259436E-2,-5.2129626E-2,7.9571304E1,8.191005E-2,-3.5576303E-2],"split_indices":[1,4,6,0,0,0,6,0,0],"split_type":[0,0,0,0,0,0,0,0,0],"sum_hessian":[4.525985E2,1.3863219E2,3.1396634E2,2.8131425E0,1.3581903E2,2.7296884E2,4.0997494E1,3.9067352E1,1.9301397E0],"tree_param":{"num_deleted":"0","num_feature":"10","num_nodes":"9","size_leaf_vector":"1"}},{"base_weights":[4.7521465E-3,-4.8224097E-1,7.876452E-2,8.5048966E-2,-4.9779958E-1,-5.0282025E-1,-1.4929098E-2,-5.067867E-2,-2.7757848E-2],"categories":[],"categories_nodes":[],"categories_segments":[],"categories_sizes":[],"default_left":[0,0,0,0,0,0,0,0,0],"id":120,"left_children":[1,3,-1,-1,5,7,-1,-1,-1],"loss_changes":[1.6383305E2,5.916706E0,0E0,0E0,3.8424683E-1,9.013367E-2,0E0,0E0,0E0],"parents":[2147483647,0,0,1,1,4,4,5,5],"right_children":[2,4,-1,-1,6,8,-1,-1,-1],"split_conditions":[5.19518E0,8.046801E-2,7.876452E-2,8.5048966E-2,8.164575E1,2.5561962E0,-1.4929098E-2,-5.067867E-2,-2.7757848E-2],"split_indices":[5,4,0,0,6,2,0,0,0],"split_type":[0,0,0,0,0,0,0,0,0],"sum_hessian":[4.2771454E2,2.6392554E2,1.6378902E2,2.4263153E0,2.614992E2,2.57349E2,4.150217E0,2.5166725E2,5.6817503E0],"tree_param":{"num_deleted":"0","num_feature":"10","num_nodes":"9","size_leaf_vector":"1"}},{"base_weights":[-1.1038231E-3,7.5177E-1,-5.1926006E-2,7.846606E-2,-4.2586613E-2],"categories":[],"categories_nodes":[],"categories_segments":[],"categories_sizes":[],"default_left":[0,0,0,0,0],"id":121,"left_children":[1,3,-1,-1,-1],"loss_changes":[1.6672281E2,7.0825653E0,0E0,0E0,0E0],"parents":[2147483647,0,0,1,1],"right_children":[2,4,-1,-1,-1],"split_conditions":[3.2023728E-15,1.0999999E0,-5.1926006E-2,7.846606E-2,-4.2586613E-2],"split_indices":[5,4,0,0,0],"split_type":[0,0,0,0,0],"sum_hessian":[4.253773E2,1.7322823E2,2.5214905E2,1.6884616E2,4.382056E0],"tree_param":{"num_deleted":"0","num_feature":"10","num_nodes":"5","size_leaf_vector":"1"}},{"base_weights":[-6.221279E-4,-5.1932883E-2,7.7857934E-2],"categories":[],"categories_nodes":[],"categories_segments":[],"categories_sizes":[],"default_left":[0,0,0],"id":122,"left_children":[1,-1,-1],"loss_changes":[1.7300801E2,0E0,0E0],"parents":[2147483647,0,0],"right_children":[2,-1,-1],"split_conditions":[6.8158364E0,-5.1932883E-2,7.7857934E-2],"split_indices":[4,0,0],"split_type":[0,0,0],"sum_hessian":[4.2604974E2,2.5597995E2,1.7006981E2],"tree_param":{"num_deleted":"0","num_feature":"10","num_nodes":"3","size_leaf_vector":"1"}},{"base_weights":[-1.8742057E-3,-5.190074E-2,5.660467E-1,-5.011767E-2,7.154614E-1,7.511103E-1,-4.3583434E-2,-4.2861924E-2,7.8490876E-2],"categories":[],"categories_nodes":[],"categories_segments":[],"categories_sizes":[],"default_left":[0,0,0,0,0,0,0,0,0],"id":123,"left_children":[1,-1,3,-1,5,7,-1,-1,-1],"loss_changes":[1.2574479E2,0E0,3.2897453E1,0E0,7.6907806E0,7.2898407E0,0E0,0E0,0E0],"parents":[2147483647,0,0,2,2,4,4,5,5],"right_children":[2,-1,4,-1,6,8,-1,-1,-1],"split_conditions":[1.464E3,-5.190074E-2,-3E-1,-5.011767E-2,1.819E3,7.021497E-1,-4.3583434E-2,-4.2861924E-2,7.8490876E-2],"split_indices":[0,0,6,0,0,4,0,0,0],"split_type":[0,0,0,0,0,0,0,0,0],"sum_hessian":[4.261534E2,2.230952E2,2.0305821E2,2.464834E1,1.7840988E2,1.7338864E2,5.021241E0,4.5037694E0,1.6888487E2],"tree_param":{"num_deleted":"0","num_feature":"10","num_nodes":"9","size_leaf_vector":"1"}},{"base_weights":[1.4468763E-3,-5.190074E-2,5.7382274E-1,7.850554E-2,4.0777028E-2,7.764219E-2,-5.06224E-2],"categories":[],"categories_nodes":[],"categories_segments":[],"categories_sizes":[],"default_left":[0,0,0,0,0,0,0],"id":124,"left_children":[1,-1,3,-1,5,-1,-1],"loss_changes":[1.27457375E2,0E0,2.2911179E1,0E0,2.4088238E1,0E0,0E0],"parents":[2147483647,0,0,2,2,4,4],"right_children":[2,-1,4,-1,6,-1,-1],"split_conditions":[1.464E3,-5.190074E-2,-3E-1,7.850554E-2,7.021497E-1,7.764219E-2,-5.06224E-2],"split_indices":[0,0,6,0,4,0,0],"split_type":[0,0,0,0,0,0,0],"sum_hessian":[4.2585965E2,2.230952E2,2.0276445E2,1.4487955E2,5.7884903E1,2.4506907E1,3.3378E1],"tree_param":{"num_deleted":"0","num_feature":"10","num_nodes":"7","size_leaf_vector":"1"}},{"base_weights":[-1.0486402E-3,-5.1870037E-2,4.5171747E-1,7.8179695E-2,-5.126006E-2],"categories":[],"categories_nodes":[],"categories_segments":[],"categories_sizes":[],"default_left":[0,0,0,0,0],"id":125,"left_children":[1,-1,3,-1,-1],"loss_changes":[1.0029352E2,0E0,7.305841E1,0E0,0E0],"parents":[2147483647,0,0,2,2],"right_children":[2,-1,4,-1,-1],"split_conditions":[1.1113231E0,-5.1870037E-2,1.2634437E0,7.8179695E-2,-5.126006E-2],"split_indices":[3,0,3,0,0],"split_type":[0,0,0,0,0],"sum_hessian":[4.2591904E2,1.9865234E2,2.272667E2,1.6945328E2,5.781342E1],"tree_param":{"num_deleted":"0","num_feature":"10","num_nodes":"5","size_leaf_vector":"1"}},{"base_weights":[-2.5381232E-4,-5.1925134E-2,7.571682E-1,7.7924013E-1,-3.9669763E-2,-3.2744195E-2,7.878394E-2],"categories":[],"categories_nodes":[],"categories_segments":[],"categories_sizes":[],"default_left":[0,0,0,0,0,0,0],"id":126,"left_children":[1,-1,3,5,-1,-1,-1],"loss_changes":[1.6849944E2,0E0,4.7478943E0,1.8886795E0,0E0,0E0,0E0],"parents":[2147483647,0,0,2,2,3,3],"right_children":[2,-1,4,6,-1,-1,-1],"split_conditions":[1.4075013E0,-5.1925134E-2,2.8621008E0,7.1E2,-3.9669763E-2,-3.2744195E-2,7.878394E-2],"split_indices":[2,0,3,0,0,0,0],"split_type":[0,0,0,0,0,0,0],"sum_hessian":[4.2664233E2,2.5335437E2,1.7328796E2,1.7035399E2,2.9339814E0,1.0276064E0,1.6932639E2],"tree_param":{"num_deleted":"0","num_feature":"10","num_nodes":"7","size_leaf_vector":"1"}},{"base_weights":[-9.5385994E-4,-5.1918503E-2,7.047004E-1,7.7979326E-2,-4.808938E-2],"categories":[],"categories_nodes":[],"categories_segments":[],"categories_sizes":[],"default_left":[0,0,0,0,0],"id":127,"left_children":[1,-1,3,-1,-1],"loss_changes":[1.5671756E2,0E0,1.6530502E1,0E0,0E0],"parents":[2147483647,0,0,2,2],"right_children":[2,-1,4,-1,-1],"split_conditions":[1.3155551E0,-5.1918503E-2,-7.25E0,7.7979326E-2,-4.808938E-2],"split_indices":[3,0,6,0,0],"split_type":[0,0,0,0,0],"sum_hessian":[4.2655014E2,2.460879E2,1.8046223E2,1.700349E2,1.0427344E1],"tree_param":{"num_deleted":"0","num_feature":"10","num_nodes":"5","size_leaf_vector":"1"}},{"base_weights":[-1.4682148E-3,6.395739E-1,-5.1911306E-2,-4.9433164E-2,7.6008624E-1,-3.987574E-2,7.831311E-2],"categories":[],"categories_nodes":[],"categories_segments":[],"categories_sizes":[],"default_left":[0,0,0,0,0,0,0],"id":128,"left_children":[1,3,-1,-1,5,-1,-1],"loss_changes":[1.4208054E2,2.6514954E1,0E0,0E0,4.940422E0,0E0,0E0],"parents":[2147483647,0,0,1,1,4,4],"right_children":[2,4,-1,-1,6,-1,-1],"split_conditions":[9E0,1.1256314E1,-5.1911306E-2,-4.9433164E-2,2.6233548E-1,-3.987574E-2,7.831311E-2],"split_indices":[0,6,0,0,3,0,0],"split_type":[0,0,0,0,0,0,0],"sum_hessian":[4.261693E2,1.9028644E2,2.3588287E2,1.7982882E1,1.7230356E2,3.041745E0,1.6926181E2],"tree_param":{"num_deleted":"0","num_feature":"10","num_nodes":"7","size_leaf_vector":"1"}},{"base_weights":[1.1076482E-3,7.587853E-1,-3.4885433E-1,-3.8068246E-2,7.842899E-2,-5.192284E-2,7.1756697E-1,7.765473E-2,-3.4865264E-2],"categories":[],"categories_nodes":[],"categories_segments":[],"categories_sizes":[],"default_left":[0,0,0,0,0,0,0,0,0],"id":129,"left_children":[1,3,5,-1,-1,-1,7,-1,-1],"loss_changes":[1.1354925E2,4.230629E0,5.3595726E1,0E0,0E0,0E0,2.8347702E0,0E0,0E0],"parents":[2147483647,0,0,1,1,2,2,6,6],"right_children":[2,4,6,-1,-1,-1,8,-1,-1],"split_conditions":[3.4946296E-2,8.046801E-2,7.812932E1,-3.8068246E-2,7.842899E-2,-5.192284E-2,7.9571304E1,7.765473E-2,-3.4865264E-2],"split_indices":[1,4,6,0,0,0,6,0,0],"split_type":[0,0,0,0,0,0,0,0,0],"sum_hessian":[4.2623352E2,1.3430064E2,2.919329E2,2.635347E0,1.316653E2,2.5216026E2,3.977263E1,3.7945286E1,1.8273444E0],"tree_param":{"num_deleted":"0","num_feature":"10","num_nodes":"9",